digraph Tree {
node [shape=box, style="filled, rounded", color="black", fontname="helvetica"] ;
edge [fontname="helvetica"] ;
0 [label=<Close &le; 24500.978<br/>squared_error = 257661631.8<br/>samples = 2538<br/>value = 13433.22>, fillcolor="#fae6d8"] ;
1 [label=<Close &le; 8464.242<br/>squared_error = 42385066.116<br/>samples = 2050<br/>value = 6494.811>, fillcolor="#fdf3ec"] ;
0 -> 1 [labeldistance=2.5, labelangle=45, headlabel="True"] ;
2 [label=<Close &le; 3397.524<br/>squared_error = 8113748.957<br/>samples = 1379<br/>value = 2767.191>, fillcolor="#fefaf7"] ;
1 -> 2 ;
3 [label=<Close &le; 1471.455<br/>squared_error = 449648.49<br/>samples = 851<br/>value = 698.267>, fillcolor="#fffefd"] ;
2 -> 3 ;
4 [label=<Close &le; 627.249<br/>squared_error = 80180.266<br/>samples = 764<br/>value = 496.763>, fillcolor="#fffefe"] ;
3 -> 4 ;
5 [label=<Close &le; 365.054<br/>squared_error = 13494.722<br/>samples = 565<br/>value = 353.365>, fillcolor="#fffffe"] ;
4 -> 5 ;
6 [label=<Close &le; 284.449<br/>squared_error = 1851.054<br/>samples = 318<br/>value = 267.811>, fillcolor="#ffffff"] ;
5 -> 6 ;
7 [label=<Close &le; 250.201<br/>squared_error = 353.455<br/>samples = 223<br/>value = 243.131>, fillcolor="#ffffff"] ;
6 -> 7 ;
8 [label=<Close &le; 231.72<br/>squared_error = 105.179<br/>samples = 156<br/>value = 232.722>, fillcolor="#ffffff"] ;
7 -> 8 ;
9 [label=<Close &le; 214.213<br/>squared_error = 75.549<br/>samples = 67<br/>value = 223.838>, fillcolor="#ffffff"] ;
8 -> 9 ;
10 [label=<Volume &le; 89706104.0<br/>squared_error = 115.59<br/>samples = 8<br/>value = 204.816>, fillcolor="#ffffff"] ;
9 -> 10 ;
11 [label=<Close &le; 203.678<br/>squared_error = 15.594<br/>samples = 7<br/>value = 208.633>, fillcolor="#ffffff"] ;
10 -> 11 ;
12 [label=<squared_error = 0.0<br/>samples = 1<br/>value = 199.26>, fillcolor="#ffffff"] ;
11 -> 12 ;
13 [label=<Close &le; 208.97<br/>squared_error = 1.112<br/>samples = 6<br/>value = 210.195>, fillcolor="#ffffff"] ;
11 -> 13 ;
14 [label=<squared_error = 0.0<br/>samples = 1<br/>value = 208.097>, fillcolor="#ffffff"] ;
13 -> 14 ;
15 [label=<Close &le; 210.787<br/>squared_error = 0.278<br/>samples = 5<br/>value = 210.614>, fillcolor="#ffffff"] ;
13 -> 15 ;
16 [label=<Volume &le; 70497102.0<br/>squared_error = 0.077<br/>samples = 3<br/>value = 210.226>, fillcolor="#ffffff"] ;
15 -> 16 ;
17 [label=<High &le; 223.417<br/>squared_error = 0.006<br/>samples = 2<br/>value = 210.417>, fillcolor="#ffffff"] ;
16 -> 17 ;
18 [label=<squared_error = 0.0<br/>samples = 1<br/>value = 210.339>, fillcolor="#ffffff"] ;
17 -> 18 ;
19 [label=<squared_error = 0.0<br/>samples = 1<br/>value = 210.495>, fillcolor="#ffffff"] ;
17 -> 19 ;
20 [label=<squared_error = 0.0<br/>samples = 1<br/>value = 209.844>, fillcolor="#ffffff"] ;
16 -> 20 ;
21 [label=<Open &le; 235.416<br/>squared_error = 0.014<br/>samples = 2<br/>value = 211.197>, fillcolor="#ffffff"] ;
15 -> 21 ;
22 [label=<squared_error = 0.0<br/>samples = 1<br/>value = 211.315>, fillcolor="#ffffff"] ;
21 -> 22 ;
23 [label=<squared_error = 0.0<br/>samples = 1<br/>value = 211.079>, fillcolor="#ffffff"] ;
21 -> 23 ;
24 [label=<squared_error = 0.0<br/>samples = 1<br/>value = 178.103>, fillcolor="#ffffff"] ;
10 -> 24 ;
25 [label=<Close &le; 225.285<br/>squared_error = 14.407<br/>samples = 59<br/>value = 226.417>, fillcolor="#ffffff"] ;
9 -> 25 ;
26 [label=<Close &le; 220.859<br/>squared_error = 5.999<br/>samples = 20<br/>value = 221.922>, fillcolor="#ffffff"] ;
25 -> 26 ;
27 [label=<High &le; 230.224<br/>squared_error = 1.148<br/>samples = 7<br/>value = 218.9>, fillcolor="#ffffff"] ;
26 -> 27 ;
28 [label=<Close &le; 219.634<br/>squared_error = 0.139<br/>samples = 5<br/>value = 219.545>, fillcolor="#ffffff"] ;
27 -> 28 ;
29 [label=<Close &le; 219.307<br/>squared_error = 0.015<br/>samples = 3<br/>value = 219.258>, fillcolor="#ffffff"] ;
28 -> 29 ;
30 [label=<Open &le; 222.245<br/>squared_error = 0.0<br/>samples = 2<br/>value = 219.172>, fillcolor="#ffffff"] ;
29 -> 30 ;
31 [label=<squared_error = 0.0<br/>samples = 1<br/>value = 219.185>, fillcolor="#ffffff"] ;
30 -> 31 ;
32 [label=<squared_error = 0.0<br/>samples = 1<br/>value = 219.159>, fillcolor="#ffffff"] ;
30 -> 32 ;
33 [label=<squared_error = 0.0<br/>samples = 1<br/>value = 219.43>, fillcolor="#ffffff"] ;
29 -> 33 ;
34 [label=<High &le; 222.892<br/>squared_error = 0.018<br/>samples = 2<br/>value = 219.975>, fillcolor="#ffffff"] ;
28 -> 34 ;
35 [label=<squared_error = 0.0<br/>samples = 1<br/>value = 219.839>, fillcolor="#ffffff"] ;
34 -> 35 ;
36 [label=<squared_error = 0.0<br/>samples = 1<br/>value = 220.11>, fillcolor="#ffffff"] ;
34 -> 36 ;
37 [label=<Close &le; 217.287<br/>squared_error = 0.031<br/>samples = 2<br/>value = 217.287>, fillcolor="#ffffff"] ;
27 -> 37 ;
38 [label=<squared_error = 0.0<br/>samples = 1<br/>value = 217.111>, fillcolor="#ffffff"] ;
37 -> 38 ;
39 [label=<squared_error = 0.0<br/>samples = 1<br/>value = 217.464>, fillcolor="#ffffff"] ;
37 -> 39 ;
40 [label=<Close &le; 223.622<br/>squared_error = 1.044<br/>samples = 13<br/>value = 223.549>, fillcolor="#ffffff"] ;
26 -> 40 ;
41 [label=<Low &le; 218.554<br/>squared_error = 0.344<br/>samples = 7<br/>value = 222.722>, fillcolor="#ffffff"] ;
40 -> 41 ;
42 [label=<Close &le; 221.938<br/>squared_error = 0.108<br/>samples = 2<br/>value = 221.938>, fillcolor="#ffffff"] ;
41 -> 42 ;
43 [label=<squared_error = 0.0<br/>samples = 1<br/>value = 221.609>, fillcolor="#ffffff"] ;
42 -> 43 ;
44 [label=<squared_error = 0.0<br/>samples = 1<br/>value = 222.266>, fillcolor="#ffffff"] ;
42 -> 44 ;
45 [label=<Low &le; 221.187<br/>squared_error = 0.094<br/>samples = 5<br/>value = 223.035>, fillcolor="#ffffff"] ;
41 -> 45 ;
46 [label=<Low &le; 220.977<br/>squared_error = 0.001<br/>samples = 2<br/>value = 223.384>, fillcolor="#ffffff"] ;
45 -> 46 ;
47 [label=<squared_error = 0.0<br/>samples = 1<br/>value = 223.356>, fillcolor="#ffffff"] ;
46 -> 47 ;
48 [label=<squared_error = 0.0<br/>samples = 1<br/>value = 223.412>, fillcolor="#ffffff"] ;
46 -> 48 ;
49 [label=<Close &le; 222.741<br/>squared_error = 0.021<br/>samples = 3<br/>value = 222.803>, fillcolor="#ffffff"] ;
45 -> 49 ;
50 [label=<squared_error = 0.0<br/>samples = 1<br/>value = 222.6>, fillcolor="#ffffff"] ;
49 -> 50 ;
51 [label=<High &le; 230.31<br/>squared_error = 0.0<br/>samples = 2<br/>value = 222.904>, fillcolor="#ffffff"] ;
49 -> 51 ;
52 [label=<squared_error = 0.0<br/>samples = 1<br/>value = 222.882>, fillcolor="#ffffff"] ;
51 -> 52 ;
53 [label=<squared_error = 0.0<br/>samples = 1<br/>value = 222.926>, fillcolor="#ffffff"] ;
51 -> 53 ;
54 [label=<Close &le; 224.456<br/>squared_error = 0.129<br/>samples = 6<br/>value = 224.515>, fillcolor="#ffffff"] ;
40 -> 54 ;
55 [label=<High &le; 225.207<br/>squared_error = 0.06<br/>samples = 2<br/>value = 224.078>, fillcolor="#ffffff"] ;
54 -> 55 ;
56 [label=<squared_error = 0.0<br/>samples = 1<br/>value = 223.833>, fillcolor="#ffffff"] ;
55 -> 56 ;
57 [label=<squared_error = 0.0<br/>samples = 1<br/>value = 224.324>, fillcolor="#ffffff"] ;
55 -> 57 ;
58 [label=<Low &le; 222.588<br/>squared_error = 0.021<br/>samples = 4<br/>value = 224.734>, fillcolor="#ffffff"] ;
54 -> 58 ;
59 [label=<Low &le; 221.987<br/>squared_error = 0.0<br/>samples = 2<br/>value = 224.607>, fillcolor="#ffffff"] ;
58 -> 59 ;
60 [label=<squared_error = 0.0<br/>samples = 1<br/>value = 224.626>, fillcolor="#ffffff"] ;
59 -> 60 ;
61 [label=<squared_error = 0.0<br/>samples = 1<br/>value = 224.587>, fillcolor="#ffffff"] ;
59 -> 61 ;
62 [label=<Open &le; 225.102<br/>squared_error = 0.008<br/>samples = 2<br/>value = 224.86>, fillcolor="#ffffff"] ;
58 -> 62 ;
63 [label=<squared_error = 0.0<br/>samples = 1<br/>value = 224.952>, fillcolor="#ffffff"] ;
62 -> 63 ;
64 [label=<squared_error = 0.0<br/>samples = 1<br/>value = 224.769>, fillcolor="#ffffff"] ;
62 -> 64 ;
65 [label=<Close &le; 228.329<br/>squared_error = 3.041<br/>samples = 39<br/>value = 228.723>, fillcolor="#ffffff"] ;
25 -> 65 ;
66 [label=<Close &le; 226.769<br/>squared_error = 0.635<br/>samples = 15<br/>value = 226.796>, fillcolor="#ffffff"] ;
65 -> 66 ;
67 [label=<High &le; 231.872<br/>squared_error = 0.14<br/>samples = 7<br/>value = 226.087>, fillcolor="#ffffff"] ;
66 -> 67 ;
68 [label=<Close &le; 225.711<br/>squared_error = 0.009<br/>samples = 4<br/>value = 225.777>, fillcolor="#ffffff"] ;
67 -> 68 ;
69 [label=<squared_error = 0.0<br/>samples = 1<br/>value = 225.619>, fillcolor="#ffffff"] ;
68 -> 69 ;
70 [label=<Volume &le; 20964100.0<br/>squared_error = 0.0<br/>samples = 3<br/>value = 225.83>, fillcolor="#ffffff"] ;
68 -> 70 ;
71 [label=<squared_error = 0.0<br/>samples = 1<br/>value = 225.803>, fillcolor="#ffffff"] ;
70 -> 71 ;
72 [label=<Close &le; 225.843<br/>squared_error = 0.0<br/>samples = 2<br/>value = 225.843>, fillcolor="#ffffff"] ;
70 -> 72 ;
73 [label=<squared_error = 0.0<br/>samples = 1<br/>value = 225.831>, fillcolor="#ffffff"] ;
72 -> 73 ;
74 [label=<squared_error = 0.0<br/>samples = 1<br/>value = 225.855>, fillcolor="#ffffff"] ;
72 -> 74 ;
75 [label=<Open &le; 228.453<br/>squared_error = 0.017<br/>samples = 3<br/>value = 226.5>, fillcolor="#ffffff"] ;
67 -> 75 ;
76 [label=<squared_error = 0.0<br/>samples = 1<br/>value = 226.684>, fillcolor="#ffffff"] ;
75 -> 76 ;
77 [label=<High &le; 237.706<br/>squared_error = 0.0<br/>samples = 2<br/>value = 226.408>, fillcolor="#ffffff"] ;
75 -> 77 ;
78 [label=<squared_error = 0.0<br/>samples = 1<br/>value = 226.39>, fillcolor="#ffffff"] ;
77 -> 78 ;
79 [label=<squared_error = 0.0<br/>samples = 1<br/>value = 226.425>, fillcolor="#ffffff"] ;
77 -> 79 ;
80 [label=<Close &le; 227.511<br/>squared_error = 0.244<br/>samples = 8<br/>value = 227.416>, fillcolor="#ffffff"] ;
66 -> 80 ;
81 [label=<Close &le; 226.991<br/>squared_error = 0.026<br/>samples = 5<br/>value = 227.057>, fillcolor="#ffffff"] ;
80 -> 81 ;
82 [label=<High &le; 228.923<br/>squared_error = 0.0<br/>samples = 2<br/>value = 226.875>, fillcolor="#ffffff"] ;
81 -> 82 ;
83 [label=<squared_error = 0.0<br/>samples = 1<br/>value = 226.897>, fillcolor="#ffffff"] ;
82 -> 83 ;
84 [label=<squared_error = 0.0<br/>samples = 1<br/>value = 226.853>, fillcolor="#ffffff"] ;
82 -> 84 ;
85 [label=<Close &le; 227.134<br/>squared_error = 0.006<br/>samples = 3<br/>value = 227.179>, fillcolor="#ffffff"] ;
81 -> 85 ;
86 [label=<squared_error = 0.0<br/>samples = 1<br/>value = 227.085>, fillcolor="#ffffff"] ;
85 -> 86 ;
87 [label=<Open &le; 233.389<br/>squared_error = 0.002<br/>samples = 2<br/>value = 227.226>, fillcolor="#ffffff"] ;
85 -> 87 ;
88 [label=<squared_error = 0.0<br/>samples = 1<br/>value = 227.183>, fillcolor="#ffffff"] ;
87 -> 88 ;
89 [label=<squared_error = 0.0<br/>samples = 1<br/>value = 227.268>, fillcolor="#ffffff"] ;
87 -> 89 ;
90 [label=<High &le; 230.757<br/>squared_error = 0.034<br/>samples = 3<br/>value = 228.015>, fillcolor="#ffffff"] ;
80 -> 90 ;
91 [label=<squared_error = 0.0<br/>samples = 1<br/>value = 227.754>, fillcolor="#ffffff"] ;
90 -> 91 ;
92 [label=<Low &le; 226.22<br/>squared_error = 0.001<br/>samples = 2<br/>value = 228.145>, fillcolor="#ffffff"] ;
90 -> 92 ;
93 [label=<squared_error = 0.0<br/>samples = 1<br/>value = 228.169>, fillcolor="#ffffff"] ;
92 -> 93 ;
94 [label=<squared_error = 0.0<br/>samples = 1<br/>value = 228.121>, fillcolor="#ffffff"] ;
92 -> 94 ;
95 [label=<Close &le; 229.896<br/>squared_error = 0.773<br/>samples = 24<br/>value = 229.927>, fillcolor="#ffffff"] ;
65 -> 95 ;
96 [label=<Close &le; 229.188<br/>squared_error = 0.217<br/>samples = 12<br/>value = 229.201>, fillcolor="#ffffff"] ;
95 -> 96 ;
97 [label=<Close &le; 228.925<br/>squared_error = 0.049<br/>samples = 6<br/>value = 228.794>, fillcolor="#ffffff"] ;
96 -> 97 ;
98 [label=<Close &le; 228.667<br/>squared_error = 0.017<br/>samples = 4<br/>value = 228.656>, fillcolor="#ffffff"] ;
97 -> 98 ;
99 [label=<Volume &le; 24091900.0<br/>squared_error = 0.002<br/>samples = 2<br/>value = 228.531>, fillcolor="#ffffff"] ;
98 -> 99 ;
100 [label=<squared_error = 0.0<br/>samples = 1<br/>value = 228.489>, fillcolor="#ffffff"] ;
99 -> 100 ;
101 [label=<squared_error = 0.0<br/>samples = 1<br/>value = 228.573>, fillcolor="#ffffff"] ;
99 -> 101 ;
102 [label=<High &le; 230.925<br/>squared_error = 0.0<br/>samples = 2<br/>value = 228.782>, fillcolor="#ffffff"] ;
98 -> 102 ;
103 [label=<squared_error = 0.0<br/>samples = 1<br/>value = 228.803>, fillcolor="#ffffff"] ;
102 -> 103 ;
104 [label=<squared_error = 0.0<br/>samples = 1<br/>value = 228.761>, fillcolor="#ffffff"] ;
102 -> 104 ;
105 [label=<Low &le; 227.665<br/>squared_error = 0.0<br/>samples = 2<br/>value = 229.07>, fillcolor="#ffffff"] ;
97 -> 105 ;
106 [label=<squared_error = 0.0<br/>samples = 1<br/>value = 229.091>, fillcolor="#ffffff"] ;
105 -> 106 ;
107 [label=<squared_error = 0.0<br/>samples = 1<br/>value = 229.048>, fillcolor="#ffffff"] ;
105 -> 107 ;
108 [label=<Open &le; 228.441<br/>squared_error = 0.053<br/>samples = 6<br/>value = 229.608>, fillcolor="#ffffff"] ;
96 -> 108 ;
109 [label=<Close &le; 229.285<br/>squared_error = 0.0<br/>samples = 2<br/>value = 229.285>, fillcolor="#ffffff"] ;
108 -> 109 ;
110 [label=<squared_error = 0.0<br/>samples = 1<br/>value = 229.284>, fillcolor="#ffffff"] ;
109 -> 110 ;
111 [label=<squared_error = 0.0<br/>samples = 1<br/>value = 229.286>, fillcolor="#ffffff"] ;
109 -> 111 ;
112 [label=<Close &le; 229.743<br/>squared_error = 0.002<br/>samples = 4<br/>value = 229.769>, fillcolor="#ffffff"] ;
108 -> 112 ;
113 [label=<squared_error = 0.0<br/>samples = 1<br/>value = 229.705>, fillcolor="#ffffff"] ;
112 -> 113 ;
114 [label=<Close &le; 229.796<br/>squared_error = 0.0<br/>samples = 3<br/>value = 229.791>, fillcolor="#ffffff"] ;
112 -> 114 ;
115 [label=<High &le; 234.838<br/>squared_error = 0.0<br/>samples = 2<br/>value = 229.781>, fillcolor="#ffffff"] ;
114 -> 115 ;
116 [label=<squared_error = 0.0<br/>samples = 1<br/>value = 229.78>, fillcolor="#ffffff"] ;
115 -> 116 ;
117 [label=<squared_error = 0.0<br/>samples = 1<br/>value = 229.782>, fillcolor="#ffffff"] ;
115 -> 117 ;
118 [label=<squared_error = 0.0<br/>samples = 1<br/>value = 229.81>, fillcolor="#ffffff"] ;
114 -> 118 ;
119 [label=<Close &le; 230.928<br/>squared_error = 0.275<br/>samples = 12<br/>value = 230.653>, fillcolor="#ffffff"] ;
95 -> 119 ;
120 [label=<Volume &le; 20854250.0<br/>squared_error = 0.05<br/>samples = 8<br/>value = 230.308>, fillcolor="#ffffff"] ;
119 -> 120 ;
121 [label=<Low &le; 229.428<br/>squared_error = 0.016<br/>samples = 5<br/>value = 230.163>, fillcolor="#ffffff"] ;
120 -> 121 ;
122 [label=<Open &le; 229.41<br/>squared_error = 0.001<br/>samples = 2<br/>value = 230.019>, fillcolor="#ffffff"] ;
121 -> 122 ;
123 [label=<squared_error = 0.0<br/>samples = 1<br/>value = 230.056>, fillcolor="#ffffff"] ;
122 -> 123 ;
124 [label=<squared_error = 0.0<br/>samples = 1<br/>value = 229.982>, fillcolor="#ffffff"] ;
122 -> 124 ;
125 [label=<Open &le; 232.035<br/>squared_error = 0.002<br/>samples = 3<br/>value = 230.259>, fillcolor="#ffffff"] ;
121 -> 125 ;
126 [label=<Low &le; 229.707<br/>squared_error = 0.0<br/>samples = 2<br/>value = 230.294>, fillcolor="#ffffff"] ;
125 -> 126 ;
127 [label=<squared_error = 0.0<br/>samples = 1<br/>value = 230.283>, fillcolor="#ffffff"] ;
126 -> 127 ;
128 [label=<squared_error = 0.0<br/>samples = 1<br/>value = 230.304>, fillcolor="#ffffff"] ;
126 -> 128 ;
129 [label=<squared_error = 0.0<br/>samples = 1<br/>value = 230.19>, fillcolor="#ffffff"] ;
125 -> 129 ;
130 [label=<Low &le; 223.91<br/>squared_error = 0.013<br/>samples = 3<br/>value = 230.551>, fillcolor="#ffffff"] ;
120 -> 130 ;
131 [label=<squared_error = 0.0<br/>samples = 1<br/>value = 230.39>, fillcolor="#ffffff"] ;
130 -> 131 ;
132 [label=<High &le; 232.413<br/>squared_error = 0.0<br/>samples = 2<br/>value = 230.631>, fillcolor="#ffffff"] ;
130 -> 132 ;
133 [label=<squared_error = 0.0<br/>samples = 1<br/>value = 230.618>, fillcolor="#ffffff"] ;
132 -> 133 ;
134 [label=<squared_error = 0.0<br/>samples = 1<br/>value = 230.644>, fillcolor="#ffffff"] ;
132 -> 134 ;
135 [label=<Close &le; 231.332<br/>squared_error = 0.012<br/>samples = 4<br/>value = 231.342>, fillcolor="#ffffff"] ;
119 -> 135 ;
136 [label=<Volume &le; 17946700.0<br/>squared_error = 0.001<br/>samples = 2<br/>value = 231.24>, fillcolor="#ffffff"] ;
135 -> 136 ;
137 [label=<squared_error = 0.0<br/>samples = 1<br/>value = 231.212>, fillcolor="#ffffff"] ;
136 -> 137 ;
138 [label=<squared_error = 0.0<br/>samples = 1<br/>value = 231.268>, fillcolor="#ffffff"] ;
136 -> 138 ;
139 [label=<Open &le; 228.78<br/>squared_error = 0.002<br/>samples = 2<br/>value = 231.444>, fillcolor="#ffffff"] ;
135 -> 139 ;
140 [label=<squared_error = 0.0<br/>samples = 1<br/>value = 231.396>, fillcolor="#ffffff"] ;
139 -> 140 ;
141 [label=<squared_error = 0.0<br/>samples = 1<br/>value = 231.493>, fillcolor="#ffffff"] ;
139 -> 141 ;
142 [label=<Close &le; 240.734<br/>squared_error = 23.347<br/>samples = 89<br/>value = 239.41>, fillcolor="#ffffff"] ;
8 -> 142 ;
143 [label=<Close &le; 235.664<br/>squared_error = 5.47<br/>samples = 58<br/>value = 236.328>, fillcolor="#ffffff"] ;
142 -> 143 ;
144 [label=<Close &le; 234.127<br/>squared_error = 1.172<br/>samples = 21<br/>value = 233.798>, fillcolor="#ffffff"] ;
143 -> 144 ;
145 [label=<Close &le; 233.052<br/>squared_error = 0.366<br/>samples = 13<br/>value = 233.056>, fillcolor="#ffffff"] ;
144 -> 145 ;
146 [label=<Close &le; 232.579<br/>squared_error = 0.155<br/>samples = 6<br/>value = 232.507>, fillcolor="#ffffff"] ;
145 -> 146 ;
147 [label=<Open &le; 231.479<br/>squared_error = 0.037<br/>samples = 3<br/>value = 232.143>, fillcolor="#ffffff"] ;
146 -> 147 ;
148 [label=<squared_error = 0.0<br/>samples = 1<br/>value = 232.402>, fillcolor="#ffffff"] ;
147 -> 148 ;
149 [label=<Low &le; 231.948<br/>squared_error = 0.004<br/>samples = 2<br/>value = 232.013>, fillcolor="#ffffff"] ;
147 -> 149 ;
150 [label=<squared_error = 0.0<br/>samples = 1<br/>value = 231.947>, fillcolor="#ffffff"] ;
149 -> 150 ;
151 [label=<squared_error = 0.0<br/>samples = 1<br/>value = 232.079>, fillcolor="#ffffff"] ;
149 -> 151 ;
152 [label=<Open &le; 233.83<br/>squared_error = 0.008<br/>samples = 3<br/>value = 232.87>, fillcolor="#ffffff"] ;
146 -> 152 ;
153 [label=<Open &le; 233.519<br/>squared_error = 0.002<br/>samples = 2<br/>value = 232.927>, fillcolor="#ffffff"] ;
152 -> 153 ;
154 [label=<squared_error = 0.0<br/>samples = 1<br/>value = 232.879>, fillcolor="#ffffff"] ;
153 -> 154 ;
155 [label=<squared_error = 0.0<br/>samples = 1<br/>value = 232.975>, fillcolor="#ffffff"] ;
153 -> 155 ;
156 [label=<squared_error = 0.0<br/>samples = 1<br/>value = 232.757>, fillcolor="#ffffff"] ;
152 -> 156 ;
157 [label=<High &le; 239.113<br/>squared_error = 0.065<br/>samples = 7<br/>value = 233.528>, fillcolor="#ffffff"] ;
145 -> 157 ;
158 [label=<Close &le; 233.237<br/>squared_error = 0.022<br/>samples = 5<br/>value = 233.387>, fillcolor="#ffffff"] ;
157 -> 158 ;
159 [label=<squared_error = 0.0<br/>samples = 1<br/>value = 233.128>, fillcolor="#ffffff"] ;
158 -> 159 ;
160 [label=<Close &le; 233.46<br/>squared_error = 0.006<br/>samples = 4<br/>value = 233.452>, fillcolor="#ffffff"] ;
158 -> 160 ;
161 [label=<Open &le; 232.207<br/>squared_error = 0.001<br/>samples = 2<br/>value = 233.376>, fillcolor="#ffffff"] ;
160 -> 161 ;
162 [label=<squared_error = 0.0<br/>samples = 1<br/>value = 233.406>, fillcolor="#ffffff"] ;
161 -> 162 ;
163 [label=<squared_error = 0.0<br/>samples = 1<br/>value = 233.345>, fillcolor="#ffffff"] ;
161 -> 163 ;
164 [label=<Open &le; 232.895<br/>squared_error = 0.0<br/>samples = 2<br/>value = 233.528>, fillcolor="#ffffff"] ;
160 -> 164 ;
165 [label=<squared_error = 0.0<br/>samples = 1<br/>value = 233.543>, fillcolor="#ffffff"] ;
164 -> 165 ;
166 [label=<squared_error = 0.0<br/>samples = 1<br/>value = 233.513>, fillcolor="#ffffff"] ;
164 -> 166 ;
167 [label=<Volume &le; 36252950.0<br/>squared_error = 0.001<br/>samples = 2<br/>value = 233.879>, fillcolor="#ffffff"] ;
157 -> 167 ;
168 [label=<squared_error = 0.0<br/>samples = 1<br/>value = 233.843>, fillcolor="#ffffff"] ;
167 -> 168 ;
169 [label=<squared_error = 0.0<br/>samples = 1<br/>value = 233.915>, fillcolor="#ffffff"] ;
167 -> 169 ;
170 [label=<Close &le; 234.984<br/>squared_error = 0.134<br/>samples = 8<br/>value = 235.004>, fillcolor="#ffffff"] ;
144 -> 170 ;
171 [label=<High &le; 250.63<br/>squared_error = 0.04<br/>samples = 3<br/>value = 234.565>, fillcolor="#ffffff"] ;
170 -> 171 ;
172 [label=<Close &le; 234.435<br/>squared_error = 0.009<br/>samples = 2<br/>value = 234.435>, fillcolor="#ffffff"] ;
171 -> 172 ;
173 [label=<squared_error = 0.0<br/>samples = 1<br/>value = 234.34>, fillcolor="#ffffff"] ;
172 -> 173 ;
174 [label=<squared_error = 0.0<br/>samples = 1<br/>value = 234.529>, fillcolor="#ffffff"] ;
172 -> 174 ;
175 [label=<squared_error = 0.0<br/>samples = 1<br/>value = 234.825>, fillcolor="#ffffff"] ;
171 -> 175 ;
176 [label=<Close &le; 235.249<br/>squared_error = 0.006<br/>samples = 5<br/>value = 235.267>, fillcolor="#ffffff"] ;
170 -> 176 ;
177 [label=<Volume &le; 20163100.0<br/>squared_error = 0.002<br/>samples = 2<br/>value = 235.187>, fillcolor="#ffffff"] ;
176 -> 177 ;
178 [label=<squared_error = 0.0<br/>samples = 1<br/>value = 235.229>, fillcolor="#ffffff"] ;
177 -> 178 ;
179 [label=<squared_error = 0.0<br/>samples = 1<br/>value = 235.144>, fillcolor="#ffffff"] ;
177 -> 179 ;
180 [label=<Close &le; 235.306<br/>squared_error = 0.001<br/>samples = 3<br/>value = 235.321>, fillcolor="#ffffff"] ;
176 -> 180 ;
181 [label=<squared_error = 0.0<br/>samples = 1<br/>value = 235.269>, fillcolor="#ffffff"] ;
180 -> 181 ;
182 [label=<High &le; 236.804<br/>squared_error = 0.0<br/>samples = 2<br/>value = 235.347>, fillcolor="#ffffff"] ;
180 -> 182 ;
183 [label=<squared_error = 0.0<br/>samples = 1<br/>value = 235.344>, fillcolor="#ffffff"] ;
182 -> 183 ;
184 [label=<squared_error = 0.0<br/>samples = 1<br/>value = 235.35>, fillcolor="#ffffff"] ;
182 -> 184 ;
185 [label=<Close &le; 237.886<br/>squared_error = 2.214<br/>samples = 37<br/>value = 237.765>, fillcolor="#ffffff"] ;
143 -> 185 ;
186 [label=<Close &le; 236.755<br/>squared_error = 0.274<br/>samples = 22<br/>value = 236.661>, fillcolor="#ffffff"] ;
185 -> 186 ;
187 [label=<Close &le; 236.24<br/>squared_error = 0.043<br/>samples = 13<br/>value = 236.27>, fillcolor="#ffffff"] ;
186 -> 187 ;
188 [label=<Close &le; 236.097<br/>squared_error = 0.004<br/>samples = 7<br/>value = 236.097>, fillcolor="#ffffff"] ;
187 -> 188 ;
189 [label=<Close &le; 236.019<br/>squared_error = 0.002<br/>samples = 3<br/>value = 236.036>, fillcolor="#ffffff"] ;
188 -> 189 ;
190 [label=<squared_error = 0.0<br/>samples = 1<br/>value = 235.977>, fillcolor="#ffffff"] ;
189 -> 190 ;
191 [label=<Low &le; 234.2<br/>squared_error = 0.0<br/>samples = 2<br/>value = 236.066>, fillcolor="#ffffff"] ;
189 -> 191 ;
192 [label=<squared_error = 0.0<br/>samples = 1<br/>value = 236.072>, fillcolor="#ffffff"] ;
191 -> 192 ;
193 [label=<squared_error = 0.0<br/>samples = 1<br/>value = 236.06>, fillcolor="#ffffff"] ;
191 -> 193 ;
194 [label=<Open &le; 238.248<br/>squared_error = 0.0<br/>samples = 4<br/>value = 236.143>, fillcolor="#ffffff"] ;
188 -> 194 ;
195 [label=<High &le; 238.646<br/>squared_error = 0.0<br/>samples = 3<br/>value = 236.15>, fillcolor="#ffffff"] ;
194 -> 195 ;
196 [label=<squared_error = 0.0<br/>samples = 2<br/>value = 236.153>, fillcolor="#ffffff"] ;
195 -> 196 ;
197 [label=<squared_error = 0.0<br/>samples = 1<br/>value = 236.145>, fillcolor="#ffffff"] ;
195 -> 197 ;
198 [label=<squared_error = 0.0<br/>samples = 1<br/>value = 236.121>, fillcolor="#ffffff"] ;
194 -> 198 ;
199 [label=<Close &le; 236.507<br/>squared_error = 0.014<br/>samples = 6<br/>value = 236.472>, fillcolor="#ffffff"] ;
187 -> 199 ;
200 [label=<High &le; 240.707<br/>squared_error = 0.003<br/>samples = 4<br/>value = 236.398>, fillcolor="#ffffff"] ;
199 -> 200 ;
201 [label=<Open &le; 235.695<br/>squared_error = 0.0<br/>samples = 2<br/>value = 236.444>, fillcolor="#ffffff"] ;
200 -> 201 ;
202 [label=<squared_error = 0.0<br/>samples = 1<br/>value = 236.462>, fillcolor="#ffffff"] ;
201 -> 202 ;
203 [label=<squared_error = 0.0<br/>samples = 1<br/>value = 236.426>, fillcolor="#ffffff"] ;
201 -> 203 ;
204 [label=<Volume &le; 26190450.0<br/>squared_error = 0.001<br/>samples = 2<br/>value = 236.352>, fillcolor="#ffffff"] ;
200 -> 204 ;
205 [label=<squared_error = 0.0<br/>samples = 1<br/>value = 236.326>, fillcolor="#ffffff"] ;
204 -> 205 ;
206 [label=<squared_error = 0.0<br/>samples = 1<br/>value = 236.377>, fillcolor="#ffffff"] ;
204 -> 206 ;
207 [label=<Low &le; 235.051<br/>squared_error = 0.005<br/>samples = 2<br/>value = 236.619>, fillcolor="#ffffff"] ;
199 -> 207 ;
208 [label=<squared_error = 0.0<br/>samples = 1<br/>value = 236.552>, fillcolor="#ffffff"] ;
207 -> 208 ;
209 [label=<squared_error = 0.0<br/>samples = 1<br/>value = 236.687>, fillcolor="#ffffff"] ;
207 -> 209 ;
210 [label=<Close &le; 237.225<br/>squared_error = 0.068<br/>samples = 9<br/>value = 237.226>, fillcolor="#ffffff"] ;
186 -> 210 ;
211 [label=<Close &le; 237.012<br/>squared_error = 0.014<br/>samples = 5<br/>value = 237.015>, fillcolor="#ffffff"] ;
210 -> 211 ;
212 [label=<High &le; 237.817<br/>squared_error = 0.003<br/>samples = 2<br/>value = 236.876>, fillcolor="#ffffff"] ;
211 -> 212 ;
213 [label=<squared_error = 0.0<br/>samples = 1<br/>value = 236.929>, fillcolor="#ffffff"] ;
212 -> 213 ;
214 [label=<squared_error = 0.0<br/>samples = 1<br/>value = 236.823>, fillcolor="#ffffff"] ;
212 -> 214 ;
215 [label=<High &le; 237.882<br/>squared_error = 0.0<br/>samples = 3<br/>value = 237.107>, fillcolor="#ffffff"] ;
211 -> 215 ;
216 [label=<squared_error = 0.0<br/>samples = 1<br/>value = 237.096>, fillcolor="#ffffff"] ;
215 -> 216 ;
217 [label=<Close &le; 237.113<br/>squared_error = 0.0<br/>samples = 2<br/>value = 237.113>, fillcolor="#ffffff"] ;
215 -> 217 ;
218 [label=<squared_error = 0.0<br/>samples = 1<br/>value = 237.11>, fillcolor="#ffffff"] ;
217 -> 218 ;
219 [label=<squared_error = 0.0<br/>samples = 1<br/>value = 237.116>, fillcolor="#ffffff"] ;
217 -> 219 ;
220 [label=<Close &le; 237.402<br/>squared_error = 0.01<br/>samples = 4<br/>value = 237.489>, fillcolor="#ffffff"] ;
210 -> 220 ;
221 [label=<squared_error = 0.0<br/>samples = 1<br/>value = 237.334>, fillcolor="#ffffff"] ;
220 -> 221 ;
222 [label=<Open &le; 237.923<br/>squared_error = 0.003<br/>samples = 3<br/>value = 237.541>, fillcolor="#ffffff"] ;
220 -> 222 ;
223 [label=<Volume &le; 18409100.0<br/>squared_error = 0.001<br/>samples = 2<br/>value = 237.577>, fillcolor="#ffffff"] ;
222 -> 223 ;
224 [label=<squared_error = 0.0<br/>samples = 1<br/>value = 237.605>, fillcolor="#ffffff"] ;
223 -> 224 ;
225 [label=<squared_error = 0.0<br/>samples = 1<br/>value = 237.549>, fillcolor="#ffffff"] ;
223 -> 225 ;
226 [label=<squared_error = 0.0<br/>samples = 1<br/>value = 237.47>, fillcolor="#ffffff"] ;
222 -> 226 ;
227 [label=<Close &le; 239.491<br/>squared_error = 0.654<br/>samples = 15<br/>value = 239.383>, fillcolor="#ffffff"] ;
185 -> 227 ;
228 [label=<Close &le; 238.604<br/>squared_error = 0.107<br/>samples = 8<br/>value = 238.678>, fillcolor="#ffffff"] ;
227 -> 228 ;
229 [label=<Low &le; 236.806<br/>squared_error = 0.017<br/>samples = 3<br/>value = 238.301>, fillcolor="#ffffff"] ;
228 -> 229 ;
230 [label=<squared_error = 0.0<br/>samples = 1<br/>value = 238.477>, fillcolor="#ffffff"] ;
229 -> 230 ;
231 [label=<Low &le; 237.881<br/>squared_error = 0.002<br/>samples = 2<br/>value = 238.214>, fillcolor="#ffffff"] ;
229 -> 231 ;
232 [label=<squared_error = 0.0<br/>samples = 1<br/>value = 238.168>, fillcolor="#ffffff"] ;
231 -> 232 ;
233 [label=<squared_error = 0.0<br/>samples = 1<br/>value = 238.259>, fillcolor="#ffffff"] ;
231 -> 233 ;
234 [label=<Close &le; 238.955<br/>squared_error = 0.026<br/>samples = 5<br/>value = 238.903>, fillcolor="#ffffff"] ;
228 -> 234 ;
235 [label=<Close &le; 238.813<br/>squared_error = 0.006<br/>samples = 3<br/>value = 238.786>, fillcolor="#ffffff"] ;
234 -> 235 ;
236 [label=<High &le; 239.608<br/>squared_error = 0.0<br/>samples = 2<br/>value = 238.732>, fillcolor="#ffffff"] ;
235 -> 236 ;
237 [label=<squared_error = 0.0<br/>samples = 1<br/>value = 238.73>, fillcolor="#ffffff"] ;
236 -> 237 ;
238 [label=<squared_error = 0.0<br/>samples = 1<br/>value = 238.735>, fillcolor="#ffffff"] ;
236 -> 238 ;
239 [label=<squared_error = 0.0<br/>samples = 1<br/>value = 238.892>, fillcolor="#ffffff"] ;
235 -> 239 ;
240 [label=<Open &le; 236.596<br/>squared_error = 0.004<br/>samples = 2<br/>value = 239.08>, fillcolor="#ffffff"] ;
234 -> 240 ;
241 [label=<squared_error = 0.0<br/>samples = 1<br/>value = 239.142>, fillcolor="#ffffff"] ;
240 -> 241 ;
242 [label=<squared_error = 0.0<br/>samples = 1<br/>value = 239.018>, fillcolor="#ffffff"] ;
240 -> 242 ;
243 [label=<Close &le; 240.195<br/>squared_error = 0.061<br/>samples = 7<br/>value = 240.189>, fillcolor="#ffffff"] ;
227 -> 243 ;
244 [label=<High &le; 241.638<br/>squared_error = 0.015<br/>samples = 3<br/>value = 239.931>, fillcolor="#ffffff"] ;
243 -> 244 ;
245 [label=<squared_error = 0.0<br/>samples = 1<br/>value = 240.107>, fillcolor="#ffffff"] ;
244 -> 245 ;
246 [label=<Open &le; 237.402<br/>squared_error = 0.0<br/>samples = 2<br/>value = 239.843>, fillcolor="#ffffff"] ;
244 -> 246 ;
247 [label=<squared_error = 0.0<br/>samples = 1<br/>value = 239.84>, fillcolor="#ffffff"] ;
246 -> 247 ;
248 [label=<squared_error = 0.0<br/>samples = 1<br/>value = 239.847>, fillcolor="#ffffff"] ;
246 -> 248 ;
249 [label=<Volume &le; 17807700.0<br/>squared_error = 0.007<br/>samples = 4<br/>value = 240.382>, fillcolor="#ffffff"] ;
243 -> 249 ;
250 [label=<squared_error = 0.0<br/>samples = 1<br/>value = 240.515>, fillcolor="#ffffff"] ;
249 -> 250 ;
251 [label=<Volume &le; 20803200.0<br/>squared_error = 0.002<br/>samples = 3<br/>value = 240.338>, fillcolor="#ffffff"] ;
249 -> 251 ;
252 [label=<squared_error = 0.0<br/>samples = 1<br/>value = 240.283>, fillcolor="#ffffff"] ;
251 -> 252 ;
253 [label=<Volume &le; 25169450.0<br/>squared_error = 0.0<br/>samples = 2<br/>value = 240.366>, fillcolor="#ffffff"] ;
251 -> 253 ;
254 [label=<squared_error = 0.0<br/>samples = 1<br/>value = 240.383>, fillcolor="#ffffff"] ;
253 -> 254 ;
255 [label=<squared_error = 0.0<br/>samples = 1<br/>value = 240.348>, fillcolor="#ffffff"] ;
253 -> 255 ;
256 [label=<Close &le; 245.829<br/>squared_error = 5.795<br/>samples = 31<br/>value = 245.175>, fillcolor="#ffffff"] ;
142 -> 256 ;
257 [label=<Close &le; 243.196<br/>squared_error = 1.588<br/>samples = 20<br/>value = 243.628>, fillcolor="#ffffff"] ;
256 -> 257 ;
258 [label=<High &le; 243.106<br/>squared_error = 0.525<br/>samples = 6<br/>value = 242.007>, fillcolor="#ffffff"] ;
257 -> 258 ;
259 [label=<Volume &le; 15395300.0<br/>squared_error = 0.006<br/>samples = 2<br/>value = 241.033>, fillcolor="#ffffff"] ;
258 -> 259 ;
260 [label=<squared_error = 0.0<br/>samples = 1<br/>value = 240.953>, fillcolor="#ffffff"] ;
259 -> 260 ;
261 [label=<squared_error = 0.0<br/>samples = 1<br/>value = 241.112>, fillcolor="#ffffff"] ;
259 -> 261 ;
262 [label=<Close &le; 242.508<br/>squared_error = 0.072<br/>samples = 4<br/>value = 242.493>, fillcolor="#ffffff"] ;
258 -> 262 ;
263 [label=<Low &le; 240.778<br/>squared_error = 0.005<br/>samples = 2<br/>value = 242.231>, fillcolor="#ffffff"] ;
262 -> 263 ;
264 [label=<squared_error = 0.0<br/>samples = 1<br/>value = 242.158>, fillcolor="#ffffff"] ;
263 -> 264 ;
265 [label=<squared_error = 0.0<br/>samples = 1<br/>value = 242.304>, fillcolor="#ffffff"] ;
263 -> 265 ;
266 [label=<Volume &le; 18916250.0<br/>squared_error = 0.002<br/>samples = 2<br/>value = 242.756>, fillcolor="#ffffff"] ;
262 -> 266 ;
267 [label=<squared_error = 0.0<br/>samples = 1<br/>value = 242.799>, fillcolor="#ffffff"] ;
266 -> 267 ;
268 [label=<squared_error = 0.0<br/>samples = 1<br/>value = 242.713>, fillcolor="#ffffff"] ;
266 -> 268 ;
269 [label=<Close &le; 244.415<br/>squared_error = 0.433<br/>samples = 14<br/>value = 244.323>, fillcolor="#ffffff"] ;
257 -> 269 ;
270 [label=<Close &le; 243.77<br/>squared_error = 0.052<br/>samples = 8<br/>value = 243.815>, fillcolor="#ffffff"] ;
269 -> 270 ;
271 [label=<Close &le; 243.643<br/>squared_error = 0.001<br/>samples = 4<br/>value = 243.622>, fillcolor="#ffffff"] ;
270 -> 271 ;
272 [label=<Volume &le; 20431350.0<br/>squared_error = 0.0<br/>samples = 3<br/>value = 243.604>, fillcolor="#ffffff"] ;
271 -> 272 ;
273 [label=<squared_error = 0.0<br/>samples = 1<br/>value = 243.594>, fillcolor="#ffffff"] ;
272 -> 273 ;
274 [label=<Open &le; 236.634<br/>squared_error = 0.0<br/>samples = 2<br/>value = 243.608>, fillcolor="#ffffff"] ;
272 -> 274 ;
275 [label=<squared_error = 0.0<br/>samples = 1<br/>value = 243.61>, fillcolor="#ffffff"] ;
274 -> 275 ;
276 [label=<squared_error = 0.0<br/>samples = 1<br/>value = 243.607>, fillcolor="#ffffff"] ;
274 -> 276 ;
277 [label=<squared_error = 0.0<br/>samples = 1<br/>value = 243.676>, fillcolor="#ffffff"] ;
271 -> 277 ;
278 [label=<Close &le; 244.12<br/>squared_error = 0.028<br/>samples = 4<br/>value = 244.009>, fillcolor="#ffffff"] ;
270 -> 278 ;
279 [label=<Volume &le; 22399300.0<br/>squared_error = 0.001<br/>samples = 3<br/>value = 243.913>, fillcolor="#ffffff"] ;
278 -> 279 ;
280 [label=<High &le; 244.726<br/>squared_error = 0.0<br/>samples = 2<br/>value = 243.938>, fillcolor="#ffffff"] ;
279 -> 280 ;
281 [label=<squared_error = 0.0<br/>samples = 1<br/>value = 243.931>, fillcolor="#ffffff"] ;
280 -> 281 ;
282 [label=<squared_error = 0.0<br/>samples = 1<br/>value = 243.944>, fillcolor="#ffffff"] ;
280 -> 282 ;
283 [label=<squared_error = 0.0<br/>samples = 1<br/>value = 243.863>, fillcolor="#ffffff"] ;
279 -> 283 ;
284 [label=<squared_error = 0.0<br/>samples = 1<br/>value = 244.296>, fillcolor="#ffffff"] ;
278 -> 284 ;
285 [label=<Close &le; 245.165<br/>squared_error = 0.138<br/>samples = 6<br/>value = 245.001>, fillcolor="#ffffff"] ;
269 -> 285 ;
286 [label=<Close &le; 244.773<br/>squared_error = 0.044<br/>samples = 4<br/>value = 244.776>, fillcolor="#ffffff"] ;
285 -> 286 ;
287 [label=<Volume &le; 18124750.0<br/>squared_error = 0.001<br/>samples = 2<br/>value = 244.57>, fillcolor="#ffffff"] ;
286 -> 287 ;
288 [label=<squared_error = 0.0<br/>samples = 1<br/>value = 244.534>, fillcolor="#ffffff"] ;
287 -> 288 ;
289 [label=<squared_error = 0.0<br/>samples = 1<br/>value = 244.606>, fillcolor="#ffffff"] ;
287 -> 289 ;
290 [label=<Close &le; 244.981<br/>squared_error = 0.002<br/>samples = 2<br/>value = 244.981>, fillcolor="#ffffff"] ;
286 -> 290 ;
291 [label=<squared_error = 0.0<br/>samples = 1<br/>value = 244.941>, fillcolor="#ffffff"] ;
290 -> 291 ;
292 [label=<squared_error = 0.0<br/>samples = 1<br/>value = 245.022>, fillcolor="#ffffff"] ;
290 -> 292 ;
293 [label=<Close &le; 245.451<br/>squared_error = 0.021<br/>samples = 2<br/>value = 245.451>, fillcolor="#ffffff"] ;
285 -> 293 ;
294 [label=<squared_error = 0.0<br/>samples = 1<br/>value = 245.308>, fillcolor="#ffffff"] ;
293 -> 294 ;
295 [label=<squared_error = 0.0<br/>samples = 1<br/>value = 245.595>, fillcolor="#ffffff"] ;
293 -> 295 ;
296 [label=<Close &le; 248.189<br/>squared_error = 1.191<br/>samples = 11<br/>value = 247.986>, fillcolor="#ffffff"] ;
256 -> 296 ;
297 [label=<High &le; 247.089<br/>squared_error = 0.305<br/>samples = 6<br/>value = 247.084>, fillcolor="#ffffff"] ;
296 -> 297 ;
298 [label=<squared_error = 0.0<br/>samples = 1<br/>value = 246.063>, fillcolor="#ffffff"] ;
297 -> 298 ;
299 [label=<Close &le; 247.288<br/>squared_error = 0.116<br/>samples = 5<br/>value = 247.288>, fillcolor="#ffffff"] ;
297 -> 299 ;
300 [label=<Open &le; 244.355<br/>squared_error = 0.001<br/>samples = 3<br/>value = 247.023>, fillcolor="#ffffff"] ;
299 -> 300 ;
301 [label=<squared_error = 0.0<br/>samples = 1<br/>value = 246.99>, fillcolor="#ffffff"] ;
300 -> 301 ;
302 [label=<Close &le; 247.04<br/>squared_error = 0.0<br/>samples = 2<br/>value = 247.04>, fillcolor="#ffffff"] ;
300 -> 302 ;
303 [label=<squared_error = 0.0<br/>samples = 1<br/>value = 247.029>, fillcolor="#ffffff"] ;
302 -> 303 ;
304 [label=<squared_error = 0.0<br/>samples = 1<br/>value = 247.05>, fillcolor="#ffffff"] ;
302 -> 304 ;
305 [label=<Close &le; 247.687<br/>squared_error = 0.026<br/>samples = 2<br/>value = 247.687>, fillcolor="#ffffff"] ;
299 -> 305 ;
306 [label=<squared_error = 0.0<br/>samples = 1<br/>value = 247.526>, fillcolor="#ffffff"] ;
305 -> 306 ;
307 [label=<squared_error = 0.0<br/>samples = 1<br/>value = 247.847>, fillcolor="#ffffff"] ;
305 -> 307 ;
308 [label=<Close &le; 248.77<br/>squared_error = 0.107<br/>samples = 5<br/>value = 249.068>, fillcolor="#ffffff"] ;
296 -> 308 ;
309 [label=<squared_error = 0.0<br/>samples = 1<br/>value = 248.532>, fillcolor="#ffffff"] ;
308 -> 309 ;
310 [label=<Close &le; 249.147<br/>squared_error = 0.044<br/>samples = 4<br/>value = 249.202>, fillcolor="#ffffff"] ;
308 -> 310 ;
311 [label=<Low &le; 245.781<br/>squared_error = 0.0<br/>samples = 2<br/>value = 249.009>, fillcolor="#ffffff"] ;
310 -> 311 ;
312 [label=<squared_error = 0.0<br/>samples = 1<br/>value = 249.007>, fillcolor="#ffffff"] ;
311 -> 312 ;
313 [label=<squared_error = 0.0<br/>samples = 1<br/>value = 249.011>, fillcolor="#ffffff"] ;
311 -> 313 ;
314 [label=<High &le; 253.544<br/>squared_error = 0.013<br/>samples = 2<br/>value = 249.396>, fillcolor="#ffffff"] ;
310 -> 314 ;
315 [label=<squared_error = 0.0<br/>samples = 1<br/>value = 249.508>, fillcolor="#ffffff"] ;
314 -> 315 ;
316 [label=<squared_error = 0.0<br/>samples = 1<br/>value = 249.284>, fillcolor="#ffffff"] ;
314 -> 316 ;
317 [label=<Close &le; 267.35<br/>squared_error = 91.934<br/>samples = 67<br/>value = 267.366>, fillcolor="#ffffff"] ;
7 -> 317 ;
318 [label=<Close &le; 259.323<br/>squared_error = 24.514<br/>samples = 35<br/>value = 259.393>, fillcolor="#ffffff"] ;
317 -> 318 ;
319 [label=<Close &le; 254.867<br/>squared_error = 5.065<br/>samples = 16<br/>value = 254.557>, fillcolor="#ffffff"] ;
318 -> 319 ;
320 [label=<High &le; 254.368<br/>squared_error = 1.616<br/>samples = 10<br/>value = 253.103>, fillcolor="#ffffff"] ;
319 -> 320 ;
321 [label=<Low &le; 246.01<br/>squared_error = 0.245<br/>samples = 3<br/>value = 251.291>, fillcolor="#ffffff"] ;
320 -> 321 ;
322 [label=<Open &le; 240.157<br/>squared_error = 0.002<br/>samples = 2<br/>value = 250.943>, fillcolor="#ffffff"] ;
321 -> 322 ;
323 [label=<squared_error = 0.0<br/>samples = 1<br/>value = 250.895>, fillcolor="#ffffff"] ;
322 -> 323 ;
324 [label=<squared_error = 0.0<br/>samples = 1<br/>value = 250.99>, fillcolor="#ffffff"] ;
322 -> 324 ;
325 [label=<squared_error = 0.0<br/>samples = 1<br/>value = 251.989>, fillcolor="#ffffff"] ;
321 -> 325 ;
326 [label=<Close &le; 254.046<br/>squared_error = 0.195<br/>samples = 7<br/>value = 253.879>, fillcolor="#ffffff"] ;
320 -> 326 ;
327 [label=<High &le; 254.768<br/>squared_error = 0.106<br/>samples = 4<br/>value = 253.562>, fillcolor="#ffffff"] ;
326 -> 327 ;
328 [label=<squared_error = 0.0<br/>samples = 1<br/>value = 253.005>, fillcolor="#ffffff"] ;
327 -> 328 ;
329 [label=<Low &le; 240.163<br/>squared_error = 0.003<br/>samples = 3<br/>value = 253.748>, fillcolor="#ffffff"] ;
327 -> 329 ;
330 [label=<squared_error = 0.0<br/>samples = 1<br/>value = 253.828>, fillcolor="#ffffff"] ;
329 -> 330 ;
331 [label=<Volume &le; 23038100.0<br/>squared_error = 0.0<br/>samples = 2<br/>value = 253.708>, fillcolor="#ffffff"] ;
329 -> 331 ;
332 [label=<squared_error = 0.0<br/>samples = 1<br/>value = 253.697>, fillcolor="#ffffff"] ;
331 -> 332 ;
333 [label=<squared_error = 0.0<br/>samples = 1<br/>value = 253.718>, fillcolor="#ffffff"] ;
331 -> 333 ;
334 [label=<High &le; 255.327<br/>squared_error = 0.001<br/>samples = 3<br/>value = 254.302>, fillcolor="#ffffff"] ;
326 -> 334 ;
335 [label=<squared_error = 0.0<br/>samples = 1<br/>value = 254.263>, fillcolor="#ffffff"] ;
334 -> 335 ;
336 [label=<High &le; 256.003<br/>squared_error = 0.0<br/>samples = 2<br/>value = 254.321>, fillcolor="#ffffff"] ;
334 -> 336 ;
337 [label=<squared_error = 0.0<br/>samples = 1<br/>value = 254.32>, fillcolor="#ffffff"] ;
336 -> 337 ;
338 [label=<squared_error = 0.0<br/>samples = 1<br/>value = 254.322>, fillcolor="#ffffff"] ;
336 -> 338 ;
339 [label=<Close &le; 256.278<br/>squared_error = 1.414<br/>samples = 6<br/>value = 256.981>, fillcolor="#ffffff"] ;
319 -> 339 ;
340 [label=<Volume &le; 20793050.0<br/>squared_error = 0.002<br/>samples = 2<br/>value = 255.452>, fillcolor="#ffffff"] ;
339 -> 340 ;
341 [label=<squared_error = 0.0<br/>samples = 1<br/>value = 255.492>, fillcolor="#ffffff"] ;
340 -> 341 ;
342 [label=<squared_error = 0.0<br/>samples = 1<br/>value = 255.412>, fillcolor="#ffffff"] ;
340 -> 342 ;
343 [label=<Volume &le; 30886350.0<br/>squared_error = 0.366<br/>samples = 4<br/>value = 257.746>, fillcolor="#ffffff"] ;
339 -> 343 ;
344 [label=<High &le; 262.839<br/>squared_error = 0.104<br/>samples = 2<br/>value = 258.299>, fillcolor="#ffffff"] ;
343 -> 344 ;
345 [label=<squared_error = 0.0<br/>samples = 1<br/>value = 257.976>, fillcolor="#ffffff"] ;
344 -> 345 ;
346 [label=<squared_error = 0.0<br/>samples = 1<br/>value = 258.621>, fillcolor="#ffffff"] ;
344 -> 346 ;
347 [label=<Open &le; 242.124<br/>squared_error = 0.017<br/>samples = 2<br/>value = 257.193>, fillcolor="#ffffff"] ;
343 -> 347 ;
348 [label=<squared_error = 0.0<br/>samples = 1<br/>value = 257.321>, fillcolor="#ffffff"] ;
347 -> 348 ;
349 [label=<squared_error = 0.0<br/>samples = 1<br/>value = 257.064>, fillcolor="#ffffff"] ;
347 -> 349 ;
350 [label=<Close &le; 262.309<br/>squared_error = 4.614<br/>samples = 19<br/>value = 263.465>, fillcolor="#ffffff"] ;
318 -> 350 ;
351 [label=<Close &le; 260.763<br/>squared_error = 0.323<br/>samples = 6<br/>value = 260.75>, fillcolor="#ffffff"] ;
350 -> 351 ;
352 [label=<Open &le; 254.022<br/>squared_error = 0.057<br/>samples = 3<br/>value = 260.275>, fillcolor="#ffffff"] ;
351 -> 352 ;
353 [label=<squared_error = 0.0<br/>samples = 1<br/>value = 260.598>, fillcolor="#ffffff"] ;
352 -> 353 ;
354 [label=<Volume &le; 21171900.0<br/>squared_error = 0.008<br/>samples = 2<br/>value = 260.113>, fillcolor="#ffffff"] ;
352 -> 354 ;
355 [label=<squared_error = 0.0<br/>samples = 1<br/>value = 260.025>, fillcolor="#ffffff"] ;
354 -> 355 ;
356 [label=<squared_error = 0.0<br/>samples = 1<br/>value = 260.202>, fillcolor="#ffffff"] ;
354 -> 356 ;
357 [label=<Close &le; 261.373<br/>squared_error = 0.138<br/>samples = 3<br/>value = 261.225>, fillcolor="#ffffff"] ;
351 -> 357 ;
358 [label=<Close &le; 260.963<br/>squared_error = 0.001<br/>samples = 2<br/>value = 260.963>, fillcolor="#ffffff"] ;
357 -> 358 ;
359 [label=<squared_error = 0.0<br/>samples = 1<br/>value = 260.928>, fillcolor="#ffffff"] ;
358 -> 359 ;
360 [label=<squared_error = 0.0<br/>samples = 1<br/>value = 260.997>, fillcolor="#ffffff"] ;
358 -> 360 ;
361 [label=<squared_error = 0.0<br/>samples = 1<br/>value = 261.749>, fillcolor="#ffffff"] ;
357 -> 361 ;
362 [label=<Close &le; 264.777<br/>squared_error = 1.62<br/>samples = 13<br/>value = 264.719>, fillcolor="#ffffff"] ;
350 -> 362 ;
363 [label=<Close &le; 263.777<br/>squared_error = 0.311<br/>samples = 7<br/>value = 263.657>, fillcolor="#ffffff"] ;
362 -> 363 ;
364 [label=<Close &le; 263.255<br/>squared_error = 0.064<br/>samples = 4<br/>value = 263.213>, fillcolor="#ffffff"] ;
363 -> 364 ;
365 [label=<Low &le; 254.936<br/>squared_error = 0.01<br/>samples = 2<br/>value = 262.97>, fillcolor="#ffffff"] ;
364 -> 365 ;
366 [label=<squared_error = 0.0<br/>samples = 1<br/>value = 262.869>, fillcolor="#ffffff"] ;
365 -> 366 ;
367 [label=<squared_error = 0.0<br/>samples = 1<br/>value = 263.072>, fillcolor="#ffffff"] ;
365 -> 367 ;
368 [label=<Low &le; 255.802<br/>squared_error = 0.0<br/>samples = 2<br/>value = 263.456>, fillcolor="#ffffff"] ;
364 -> 368 ;
369 [label=<squared_error = 0.0<br/>samples = 1<br/>value = 263.475>, fillcolor="#ffffff"] ;
368 -> 369 ;
370 [label=<squared_error = 0.0<br/>samples = 1<br/>value = 263.437>, fillcolor="#ffffff"] ;
368 -> 370 ;
371 [label=<Close &le; 264.333<br/>squared_error = 0.027<br/>samples = 3<br/>value = 264.248>, fillcolor="#ffffff"] ;
363 -> 371 ;
372 [label=<Volume &le; 41657300.0<br/>squared_error = 0.003<br/>samples = 2<br/>value = 264.137>, fillcolor="#ffffff"] ;
371 -> 372 ;
373 [label=<squared_error = 0.0<br/>samples = 1<br/>value = 264.08>, fillcolor="#ffffff"] ;
372 -> 373 ;
374 [label=<squared_error = 0.0<br/>samples = 1<br/>value = 264.195>, fillcolor="#ffffff"] ;
372 -> 374 ;
375 [label=<squared_error = 0.0<br/>samples = 1<br/>value = 264.47>, fillcolor="#ffffff"] ;
371 -> 375 ;
376 [label=<Close &le; 265.943<br/>squared_error = 0.297<br/>samples = 6<br/>value = 265.958>, fillcolor="#ffffff"] ;
362 -> 376 ;
377 [label=<High &le; 267.234<br/>squared_error = 0.077<br/>samples = 3<br/>value = 265.474>, fillcolor="#ffffff"] ;
376 -> 377 ;
378 [label=<squared_error = 0.0<br/>samples = 1<br/>value = 265.083>, fillcolor="#ffffff"] ;
377 -> 378 ;
379 [label=<Close &le; 265.67<br/>squared_error = 0.0<br/>samples = 2<br/>value = 265.67>, fillcolor="#ffffff"] ;
377 -> 379 ;
380 [label=<squared_error = 0.0<br/>samples = 1<br/>value = 265.66>, fillcolor="#ffffff"] ;
379 -> 380 ;
381 [label=<squared_error = 0.0<br/>samples = 1<br/>value = 265.68>, fillcolor="#ffffff"] ;
379 -> 381 ;
382 [label=<Low &le; 263.288<br/>squared_error = 0.049<br/>samples = 3<br/>value = 266.441>, fillcolor="#ffffff"] ;
376 -> 382 ;
383 [label=<squared_error = 0.0<br/>samples = 1<br/>value = 266.74>, fillcolor="#ffffff"] ;
382 -> 383 ;
384 [label=<High &le; 271.007<br/>squared_error = 0.007<br/>samples = 2<br/>value = 266.292>, fillcolor="#ffffff"] ;
382 -> 384 ;
385 [label=<squared_error = 0.0<br/>samples = 1<br/>value = 266.376>, fillcolor="#ffffff"] ;
384 -> 385 ;
386 [label=<squared_error = 0.0<br/>samples = 1<br/>value = 266.207>, fillcolor="#ffffff"] ;
384 -> 386 ;
387 [label=<Close &le; 276.859<br/>squared_error = 20.112<br/>samples = 32<br/>value = 276.086>, fillcolor="#ffffff"] ;
317 -> 387 ;
388 [label=<Close &le; 272.318<br/>squared_error = 6.57<br/>samples = 20<br/>value = 273.116>, fillcolor="#ffffff"] ;
387 -> 388 ;
389 [label=<Close &le; 269.924<br/>squared_error = 1.46<br/>samples = 7<br/>value = 270.025>, fillcolor="#ffffff"] ;
388 -> 389 ;
390 [label=<Volume &le; 24663950.0<br/>squared_error = 0.399<br/>samples = 3<br/>value = 268.818>, fillcolor="#ffffff"] ;
389 -> 390 ;
391 [label=<squared_error = 0.0<br/>samples = 1<br/>value = 267.96>, fillcolor="#ffffff"] ;
390 -> 391 ;
392 [label=<High &le; 274.128<br/>squared_error = 0.047<br/>samples = 2<br/>value = 269.247>, fillcolor="#ffffff"] ;
390 -> 392 ;
393 [label=<squared_error = 0.0<br/>samples = 1<br/>value = 269.463>, fillcolor="#ffffff"] ;
392 -> 393 ;
394 [label=<squared_error = 0.0<br/>samples = 1<br/>value = 269.03>, fillcolor="#ffffff"] ;
392 -> 394 ;
395 [label=<High &le; 274.042<br/>squared_error = 0.342<br/>samples = 4<br/>value = 270.931>, fillcolor="#ffffff"] ;
389 -> 395 ;
396 [label=<Volume &le; 31207050.0<br/>squared_error = 0.027<br/>samples = 3<br/>value = 270.604>, fillcolor="#ffffff"] ;
395 -> 396 ;
397 [label=<squared_error = 0.0<br/>samples = 1<br/>value = 270.386>, fillcolor="#ffffff"] ;
396 -> 397 ;
398 [label=<Low &le; 263.376<br/>squared_error = 0.005<br/>samples = 2<br/>value = 270.713>, fillcolor="#ffffff"] ;
396 -> 398 ;
399 [label=<squared_error = 0.0<br/>samples = 1<br/>value = 270.64>, fillcolor="#ffffff"] ;
398 -> 399 ;
400 [label=<squared_error = 0.0<br/>samples = 1<br/>value = 270.785>, fillcolor="#ffffff"] ;
398 -> 400 ;
401 [label=<squared_error = 0.0<br/>samples = 1<br/>value = 271.913>, fillcolor="#ffffff"] ;
395 -> 401 ;
402 [label=<Close &le; 275.286<br/>squared_error = 1.408<br/>samples = 13<br/>value = 274.78>, fillcolor="#ffffff"] ;
388 -> 402 ;
403 [label=<Close &le; 273.748<br/>squared_error = 0.566<br/>samples = 8<br/>value = 273.979>, fillcolor="#ffffff"] ;
402 -> 403 ;
404 [label=<Close &le; 273.283<br/>squared_error = 0.094<br/>samples = 3<br/>value = 273.096>, fillcolor="#ffffff"] ;
403 -> 404 ;
405 [label=<Open &le; 278.795<br/>squared_error = 0.034<br/>samples = 2<br/>value = 272.908>, fillcolor="#ffffff"] ;
404 -> 405 ;
406 [label=<squared_error = 0.0<br/>samples = 1<br/>value = 272.723>, fillcolor="#ffffff"] ;
405 -> 406 ;
407 [label=<squared_error = 0.0<br/>samples = 1<br/>value = 273.092>, fillcolor="#ffffff"] ;
405 -> 407 ;
408 [label=<squared_error = 0.0<br/>samples = 1<br/>value = 273.473>, fillcolor="#ffffff"] ;
404 -> 408 ;
409 [label=<Close &le; 274.635<br/>squared_error = 0.099<br/>samples = 5<br/>value = 274.51>, fillcolor="#ffffff"] ;
403 -> 409 ;
410 [label=<High &le; 277.184<br/>squared_error = 0.036<br/>samples = 3<br/>value = 274.284>, fillcolor="#ffffff"] ;
409 -> 410 ;
411 [label=<squared_error = 0.0<br/>samples = 1<br/>value = 274.023>, fillcolor="#ffffff"] ;
410 -> 411 ;
412 [label=<High &le; 278.1<br/>squared_error = 0.004<br/>samples = 2<br/>value = 274.414>, fillcolor="#ffffff"] ;
410 -> 412 ;
413 [label=<squared_error = 0.0<br/>samples = 1<br/>value = 274.354>, fillcolor="#ffffff"] ;
412 -> 413 ;
414 [label=<squared_error = 0.0<br/>samples = 1<br/>value = 274.474>, fillcolor="#ffffff"] ;
412 -> 414 ;
415 [label=<Open &le; 283.317<br/>squared_error = 0.003<br/>samples = 2<br/>value = 274.848>, fillcolor="#ffffff"] ;
409 -> 415 ;
416 [label=<squared_error = 0.0<br/>samples = 1<br/>value = 274.901>, fillcolor="#ffffff"] ;
415 -> 416 ;
417 [label=<squared_error = 0.0<br/>samples = 1<br/>value = 274.796>, fillcolor="#ffffff"] ;
415 -> 417 ;
418 [label=<Close &le; 276.155<br/>squared_error = 0.087<br/>samples = 5<br/>value = 276.062>, fillcolor="#ffffff"] ;
402 -> 418 ;
419 [label=<Low &le; 275.568<br/>squared_error = 0.024<br/>samples = 3<br/>value = 275.851>, fillcolor="#ffffff"] ;
418 -> 419 ;
420 [label=<Volume &le; 31698200.0<br/>squared_error = 0.007<br/>samples = 2<br/>value = 275.752>, fillcolor="#ffffff"] ;
419 -> 420 ;
421 [label=<squared_error = 0.0<br/>samples = 1<br/>value = 275.833>, fillcolor="#ffffff"] ;
420 -> 421 ;
422 [label=<squared_error = 0.0<br/>samples = 1<br/>value = 275.67>, fillcolor="#ffffff"] ;
420 -> 422 ;
423 [label=<squared_error = 0.0<br/>samples = 1<br/>value = 276.049>, fillcolor="#ffffff"] ;
419 -> 423 ;
424 [label=<Open &le; 272.971<br/>squared_error = 0.014<br/>samples = 2<br/>value = 276.378>, fillcolor="#ffffff"] ;
418 -> 424 ;
425 [label=<squared_error = 0.0<br/>samples = 1<br/>value = 276.261>, fillcolor="#ffffff"] ;
424 -> 425 ;
426 [label=<squared_error = 0.0<br/>samples = 1<br/>value = 276.496>, fillcolor="#ffffff"] ;
424 -> 426 ;
427 [label=<Close &le; 280.333<br/>squared_error = 3.487<br/>samples = 12<br/>value = 281.035>, fillcolor="#ffffff"] ;
387 -> 427 ;
428 [label=<Open &le; 276.874<br/>squared_error = 0.895<br/>samples = 4<br/>value = 278.714>, fillcolor="#ffffff"] ;
427 -> 428 ;
429 [label=<squared_error = 0.0<br/>samples = 1<br/>value = 277.222>, fillcolor="#ffffff"] ;
428 -> 429 ;
430 [label=<Open &le; 280.324<br/>squared_error = 0.203<br/>samples = 3<br/>value = 279.211>, fillcolor="#ffffff"] ;
428 -> 430 ;
431 [label=<Volume &le; 35038100.0<br/>squared_error = 0.003<br/>samples = 2<br/>value = 279.528>, fillcolor="#ffffff"] ;
430 -> 431 ;
432 [label=<squared_error = 0.0<br/>samples = 1<br/>value = 279.472>, fillcolor="#ffffff"] ;
431 -> 432 ;
433 [label=<squared_error = 0.0<br/>samples = 1<br/>value = 279.585>, fillcolor="#ffffff"] ;
431 -> 433 ;
434 [label=<squared_error = 0.0<br/>samples = 1<br/>value = 278.577>, fillcolor="#ffffff"] ;
430 -> 434 ;
435 [label=<Close &le; 282.25<br/>squared_error = 0.742<br/>samples = 8<br/>value = 282.196>, fillcolor="#ffffff"] ;
427 -> 435 ;
436 [label=<Low &le; 281.029<br/>squared_error = 0.072<br/>samples = 5<br/>value = 281.585>, fillcolor="#ffffff"] ;
435 -> 436 ;
437 [label=<Low &le; 279.544<br/>squared_error = 0.011<br/>samples = 4<br/>value = 281.711>, fillcolor="#ffffff"] ;
436 -> 437 ;
438 [label=<Low &le; 277.308<br/>squared_error = 0.002<br/>samples = 3<br/>value = 281.652>, fillcolor="#ffffff"] ;
437 -> 438 ;
439 [label=<Open &le; 275.775<br/>squared_error = 0.001<br/>samples = 2<br/>value = 281.678>, fillcolor="#ffffff"] ;
438 -> 439 ;
440 [label=<squared_error = 0.0<br/>samples = 1<br/>value = 281.702>, fillcolor="#ffffff"] ;
439 -> 440 ;
441 [label=<squared_error = 0.0<br/>samples = 1<br/>value = 281.654>, fillcolor="#ffffff"] ;
439 -> 441 ;
442 [label=<squared_error = 0.0<br/>samples = 1<br/>value = 281.601>, fillcolor="#ffffff"] ;
438 -> 442 ;
443 [label=<squared_error = 0.0<br/>samples = 1<br/>value = 281.885>, fillcolor="#ffffff"] ;
437 -> 443 ;
444 [label=<squared_error = 0.0<br/>samples = 1<br/>value = 281.082>, fillcolor="#ffffff"] ;
436 -> 444 ;
445 [label=<Low &le; 279.487<br/>squared_error = 0.198<br/>samples = 3<br/>value = 283.214>, fillcolor="#ffffff"] ;
435 -> 445 ;
446 [label=<squared_error = 0.0<br/>samples = 1<br/>value = 282.614>, fillcolor="#ffffff"] ;
445 -> 446 ;
447 [label=<Volume &le; 32849800.0<br/>squared_error = 0.027<br/>samples = 2<br/>value = 283.514>, fillcolor="#ffffff"] ;
445 -> 447 ;
448 [label=<squared_error = 0.0<br/>samples = 1<br/>value = 283.349>, fillcolor="#ffffff"] ;
447 -> 448 ;
449 [label=<squared_error = 0.0<br/>samples = 1<br/>value = 283.68>, fillcolor="#ffffff"] ;
447 -> 449 ;
450 [label=<Close &le; 322.534<br/>squared_error = 580.126<br/>samples = 95<br/>value = 325.746>, fillcolor="#ffffff"] ;
6 -> 450 ;
451 [label=<Close &le; 300.499<br/>squared_error = 187.088<br/>samples = 40<br/>value = 302.126>, fillcolor="#ffffff"] ;
450 -> 451 ;
452 [label=<Close &le; 290.007<br/>squared_error = 12.604<br/>samples = 22<br/>value = 290.266>, fillcolor="#ffffff"] ;
451 -> 452 ;
453 [label=<Close &le; 286.826<br/>squared_error = 2.816<br/>samples = 10<br/>value = 286.832>, fillcolor="#ffffff"] ;
452 -> 453 ;
454 [label=<Close &le; 285.667<br/>squared_error = 0.118<br/>samples = 6<br/>value = 285.563>, fillcolor="#ffffff"] ;
453 -> 454 ;
455 [label=<Volume &le; 21702950.0<br/>squared_error = 0.011<br/>samples = 4<br/>value = 285.34>, fillcolor="#ffffff"] ;
454 -> 455 ;
456 [label=<squared_error = 0.0<br/>samples = 1<br/>value = 285.505>, fillcolor="#ffffff"] ;
455 -> 456 ;
457 [label=<Close &le; 285.259<br/>squared_error = 0.002<br/>samples = 3<br/>value = 285.285>, fillcolor="#ffffff"] ;
455 -> 457 ;
458 [label=<squared_error = 0.0<br/>samples = 1<br/>value = 285.218>, fillcolor="#ffffff"] ;
457 -> 458 ;
459 [label=<Volume &le; 31765150.0<br/>squared_error = 0.0<br/>samples = 2<br/>value = 285.318>, fillcolor="#ffffff"] ;
457 -> 459 ;
460 [label=<squared_error = 0.0<br/>samples = 1<br/>value = 285.337>, fillcolor="#ffffff"] ;
459 -> 460 ;
461 [label=<squared_error = 0.0<br/>samples = 1<br/>value = 285.3>, fillcolor="#ffffff"] ;
459 -> 461 ;
462 [label=<Close &le; 286.009<br/>squared_error = 0.032<br/>samples = 2<br/>value = 286.009>, fillcolor="#ffffff"] ;
454 -> 462 ;
463 [label=<squared_error = 0.0<br/>samples = 1<br/>value = 285.829>, fillcolor="#ffffff"] ;
462 -> 463 ;
464 [label=<squared_error = 0.0<br/>samples = 1<br/>value = 286.189>, fillcolor="#ffffff"] ;
462 -> 464 ;
465 [label=<Close &le; 288.934<br/>squared_error = 0.829<br/>samples = 4<br/>value = 288.735>, fillcolor="#ffffff"] ;
453 -> 465 ;
466 [label=<Close &le; 287.871<br/>squared_error = 0.166<br/>samples = 2<br/>value = 287.871>, fillcolor="#ffffff"] ;
465 -> 466 ;
467 [label=<squared_error = 0.0<br/>samples = 1<br/>value = 287.464>, fillcolor="#ffffff"] ;
466 -> 467 ;
468 [label=<squared_error = 0.0<br/>samples = 1<br/>value = 288.278>, fillcolor="#ffffff"] ;
466 -> 468 ;
469 [label=<Volume &le; 41925400.0<br/>squared_error = 0.0<br/>samples = 2<br/>value = 289.598>, fillcolor="#ffffff"] ;
465 -> 469 ;
470 [label=<squared_error = 0.0<br/>samples = 1<br/>value = 289.59>, fillcolor="#ffffff"] ;
469 -> 470 ;
471 [label=<squared_error = 0.0<br/>samples = 1<br/>value = 289.607>, fillcolor="#ffffff"] ;
469 -> 471 ;
472 [label=<Close &le; 292.9<br/>squared_error = 2.746<br/>samples = 12<br/>value = 293.127>, fillcolor="#ffffff"] ;
452 -> 472 ;
473 [label=<Open &le; 287.163<br/>squared_error = 0.759<br/>samples = 5<br/>value = 291.5>, fillcolor="#ffffff"] ;
472 -> 473 ;
474 [label=<Volume &le; 20117350.0<br/>squared_error = 0.009<br/>samples = 2<br/>value = 290.5>, fillcolor="#ffffff"] ;
473 -> 474 ;
475 [label=<squared_error = 0.0<br/>samples = 1<br/>value = 290.408>, fillcolor="#ffffff"] ;
474 -> 475 ;
476 [label=<squared_error = 0.0<br/>samples = 1<br/>value = 290.593>, fillcolor="#ffffff"] ;
474 -> 476 ;
477 [label=<High &le; 296.548<br/>squared_error = 0.149<br/>samples = 3<br/>value = 292.167>, fillcolor="#ffffff"] ;
473 -> 477 ;
478 [label=<squared_error = 0.0<br/>samples = 1<br/>value = 292.686>, fillcolor="#ffffff"] ;
477 -> 478 ;
479 [label=<Volume &le; 64912350.0<br/>squared_error = 0.022<br/>samples = 2<br/>value = 291.907>, fillcolor="#ffffff"] ;
477 -> 479 ;
480 [label=<squared_error = 0.0<br/>samples = 1<br/>value = 292.054>, fillcolor="#ffffff"] ;
479 -> 480 ;
481 [label=<squared_error = 0.0<br/>samples = 1<br/>value = 291.76>, fillcolor="#ffffff"] ;
479 -> 481 ;
482 [label=<Close &le; 295.403<br/>squared_error = 0.924<br/>samples = 7<br/>value = 294.289>, fillcolor="#ffffff"] ;
472 -> 482 ;
483 [label=<Close &le; 294.062<br/>squared_error = 0.228<br/>samples = 6<br/>value = 293.941>, fillcolor="#ffffff"] ;
482 -> 483 ;
484 [label=<Open &le; 285.031<br/>squared_error = 0.082<br/>samples = 3<br/>value = 293.509>, fillcolor="#ffffff"] ;
483 -> 484 ;
485 [label=<squared_error = 0.0<br/>samples = 1<br/>value = 293.115>, fillcolor="#ffffff"] ;
484 -> 485 ;
486 [label=<High &le; 296.993<br/>squared_error = 0.007<br/>samples = 2<br/>value = 293.706>, fillcolor="#ffffff"] ;
484 -> 486 ;
487 [label=<squared_error = 0.0<br/>samples = 1<br/>value = 293.788>, fillcolor="#ffffff"] ;
486 -> 487 ;
488 [label=<squared_error = 0.0<br/>samples = 1<br/>value = 293.624>, fillcolor="#ffffff"] ;
486 -> 488 ;
489 [label=<Close &le; 294.391<br/>squared_error = 0.002<br/>samples = 3<br/>value = 294.373>, fillcolor="#ffffff"] ;
483 -> 489 ;
490 [label=<Close &le; 294.346<br/>squared_error = 0.0<br/>samples = 2<br/>value = 294.346>, fillcolor="#ffffff"] ;
489 -> 490 ;
491 [label=<squared_error = 0.0<br/>samples = 1<br/>value = 294.337>, fillcolor="#ffffff"] ;
490 -> 491 ;
492 [label=<squared_error = 0.0<br/>samples = 1<br/>value = 294.354>, fillcolor="#ffffff"] ;
490 -> 492 ;
493 [label=<squared_error = 0.0<br/>samples = 1<br/>value = 294.427>, fillcolor="#ffffff"] ;
489 -> 493 ;
494 [label=<squared_error = 0.0<br/>samples = 1<br/>value = 296.379>, fillcolor="#ffffff"] ;
482 -> 494 ;
495 [label=<Close &le; 316.551<br/>squared_error = 18.303<br/>samples = 18<br/>value = 316.621>, fillcolor="#ffffff"] ;
451 -> 495 ;
496 [label=<High &le; 311.085<br/>squared_error = 11.157<br/>samples = 8<br/>value = 312.692>, fillcolor="#ffffff"] ;
495 -> 496 ;
497 [label=<squared_error = 0.0<br/>samples = 1<br/>value = 304.618>, fillcolor="#ffffff"] ;
496 -> 497 ;
498 [label=<Close &le; 313.263<br/>squared_error = 2.107<br/>samples = 7<br/>value = 313.846>, fillcolor="#ffffff"] ;
496 -> 498 ;
499 [label=<Open &le; 328.76<br/>squared_error = 0.629<br/>samples = 2<br/>value = 311.877>, fillcolor="#ffffff"] ;
498 -> 499 ;
500 [label=<squared_error = 0.0<br/>samples = 1<br/>value = 312.67>, fillcolor="#ffffff"] ;
499 -> 500 ;
501 [label=<squared_error = 0.0<br/>samples = 1<br/>value = 311.084>, fillcolor="#ffffff"] ;
499 -> 501 ;
502 [label=<Close &le; 314.641<br/>squared_error = 0.529<br/>samples = 5<br/>value = 314.633>, fillcolor="#ffffff"] ;
498 -> 502 ;
503 [label=<Close &le; 314.01<br/>squared_error = 0.029<br/>samples = 3<br/>value = 314.09>, fillcolor="#ffffff"] ;
502 -> 503 ;
504 [label=<squared_error = 0.0<br/>samples = 1<br/>value = 313.855>, fillcolor="#ffffff"] ;
503 -> 504 ;
505 [label=<Volume &le; 28317325.0<br/>squared_error = 0.002<br/>samples = 2<br/>value = 314.207>, fillcolor="#ffffff"] ;
503 -> 505 ;
506 [label=<squared_error = 0.0<br/>samples = 1<br/>value = 314.249>, fillcolor="#ffffff"] ;
505 -> 506 ;
507 [label=<squared_error = 0.0<br/>samples = 1<br/>value = 314.166>, fillcolor="#ffffff"] ;
505 -> 507 ;
508 [label=<Low &le; 313.098<br/>squared_error = 0.173<br/>samples = 2<br/>value = 315.448>, fillcolor="#ffffff"] ;
502 -> 508 ;
509 [label=<squared_error = 0.0<br/>samples = 1<br/>value = 315.863>, fillcolor="#ffffff"] ;
508 -> 509 ;
510 [label=<squared_error = 0.0<br/>samples = 1<br/>value = 315.032>, fillcolor="#ffffff"] ;
508 -> 510 ;
511 [label=<Close &le; 319.392<br/>squared_error = 1.788<br/>samples = 10<br/>value = 319.765>, fillcolor="#ffffff"] ;
495 -> 511 ;
512 [label=<Close &le; 318.425<br/>squared_error = 0.539<br/>samples = 3<br/>value = 318.03>, fillcolor="#ffffff"] ;
511 -> 512 ;
513 [label=<Low &le; 308.924<br/>squared_error = 0.091<br/>samples = 2<br/>value = 317.541>, fillcolor="#ffffff"] ;
512 -> 513 ;
514 [label=<squared_error = 0.0<br/>samples = 1<br/>value = 317.843>, fillcolor="#ffffff"] ;
513 -> 514 ;
515 [label=<squared_error = 0.0<br/>samples = 1<br/>value = 317.239>, fillcolor="#ffffff"] ;
513 -> 515 ;
516 [label=<squared_error = 0.0<br/>samples = 1<br/>value = 319.008>, fillcolor="#ffffff"] ;
512 -> 516 ;
517 [label=<Close &le; 321.432<br/>squared_error = 0.481<br/>samples = 7<br/>value = 320.508>, fillcolor="#ffffff"] ;
511 -> 517 ;
518 [label=<Close &le; 320.352<br/>squared_error = 0.116<br/>samples = 6<br/>value = 320.256>, fillcolor="#ffffff"] ;
517 -> 518 ;
519 [label=<Close &le; 319.911<br/>squared_error = 0.027<br/>samples = 4<br/>value = 320.045>, fillcolor="#ffffff"] ;
518 -> 519 ;
520 [label=<squared_error = 0.0<br/>samples = 1<br/>value = 319.776>, fillcolor="#ffffff"] ;
519 -> 520 ;
521 [label=<Low &le; 317.804<br/>squared_error = 0.004<br/>samples = 3<br/>value = 320.135>, fillcolor="#ffffff"] ;
519 -> 521 ;
522 [label=<High &le; 327.427<br/>squared_error = 0.0<br/>samples = 2<br/>value = 320.179>, fillcolor="#ffffff"] ;
521 -> 522 ;
523 [label=<squared_error = 0.0<br/>samples = 1<br/>value = 320.193>, fillcolor="#ffffff"] ;
522 -> 523 ;
524 [label=<squared_error = 0.0<br/>samples = 1<br/>value = 320.166>, fillcolor="#ffffff"] ;
522 -> 524 ;
525 [label=<squared_error = 0.0<br/>samples = 1<br/>value = 320.046>, fillcolor="#ffffff"] ;
521 -> 525 ;
526 [label=<High &le; 335.715<br/>squared_error = 0.028<br/>samples = 2<br/>value = 320.676>, fillcolor="#ffffff"] ;
518 -> 526 ;
527 [label=<squared_error = 0.0<br/>samples = 1<br/>value = 320.843>, fillcolor="#ffffff"] ;
526 -> 527 ;
528 [label=<squared_error = 0.0<br/>samples = 1<br/>value = 320.51>, fillcolor="#ffffff"] ;
526 -> 528 ;
529 [label=<squared_error = 0.0<br/>samples = 1<br/>value = 322.022>, fillcolor="#ffffff"] ;
517 -> 529 ;
530 [label=<Close &le; 343.86<br/>squared_error = 165.088<br/>samples = 55<br/>value = 342.925>, fillcolor="#ffffff"] ;
450 -> 530 ;
531 [label=<Close &le; 332.396<br/>squared_error = 23.071<br/>samples = 27<br/>value = 331.027>, fillcolor="#ffffff"] ;
530 -> 531 ;
532 [label=<Close &le; 328.536<br/>squared_error = 5.237<br/>samples = 17<br/>value = 327.829>, fillcolor="#ffffff"] ;
531 -> 532 ;
533 [label=<Close &le; 326.538<br/>squared_error = 2.334<br/>samples = 11<br/>value = 326.46>, fillcolor="#ffffff"] ;
532 -> 533 ;
534 [label=<High &le; 328.03<br/>squared_error = 1.337<br/>samples = 5<br/>value = 325.074>, fillcolor="#ffffff"] ;
533 -> 534 ;
535 [label=<Close &le; 323.791<br/>squared_error = 0.555<br/>samples = 2<br/>value = 323.791>, fillcolor="#ffffff"] ;
534 -> 535 ;
536 [label=<squared_error = 0.0<br/>samples = 1<br/>value = 323.046>, fillcolor="#ffffff"] ;
535 -> 536 ;
537 [label=<squared_error = 0.0<br/>samples = 1<br/>value = 324.536>, fillcolor="#ffffff"] ;
535 -> 537 ;
538 [label=<Low &le; 323.164<br/>squared_error = 0.027<br/>samples = 3<br/>value = 325.93>, fillcolor="#ffffff"] ;
534 -> 538 ;
539 [label=<High &le; 334.789<br/>squared_error = 0.005<br/>samples = 2<br/>value = 325.82>, fillcolor="#ffffff"] ;
538 -> 539 ;
540 [label=<squared_error = 0.0<br/>samples = 1<br/>value = 325.892>, fillcolor="#ffffff"] ;
539 -> 540 ;
541 [label=<squared_error = 0.0<br/>samples = 1<br/>value = 325.749>, fillcolor="#ffffff"] ;
539 -> 541 ;
542 [label=<squared_error = 0.0<br/>samples = 1<br/>value = 326.149>, fillcolor="#ffffff"] ;
538 -> 542 ;
543 [label=<Close &le; 327.308<br/>squared_error = 0.231<br/>samples = 6<br/>value = 327.615>, fillcolor="#ffffff"] ;
533 -> 543 ;
544 [label=<Low &le; 323.329<br/>squared_error = 0.005<br/>samples = 2<br/>value = 326.995>, fillcolor="#ffffff"] ;
543 -> 544 ;
545 [label=<squared_error = 0.0<br/>samples = 1<br/>value = 326.927>, fillcolor="#ffffff"] ;
544 -> 545 ;
546 [label=<squared_error = 0.0<br/>samples = 1<br/>value = 327.062>, fillcolor="#ffffff"] ;
544 -> 546 ;
547 [label=<Close &le; 327.739<br/>squared_error = 0.056<br/>samples = 4<br/>value = 327.925>, fillcolor="#ffffff"] ;
543 -> 547 ;
548 [label=<squared_error = 0.0<br/>samples = 1<br/>value = 327.554>, fillcolor="#ffffff"] ;
547 -> 548 ;
549 [label=<Open &le; 319.599<br/>squared_error = 0.014<br/>samples = 3<br/>value = 328.048>, fillcolor="#ffffff"] ;
547 -> 549 ;
550 [label=<High &le; 332.797<br/>squared_error = 0.002<br/>samples = 2<br/>value = 327.97>, fillcolor="#ffffff"] ;
549 -> 550 ;
551 [label=<squared_error = 0.0<br/>samples = 1<br/>value = 327.924>, fillcolor="#ffffff"] ;
550 -> 551 ;
552 [label=<squared_error = 0.0<br/>samples = 1<br/>value = 328.015>, fillcolor="#ffffff"] ;
550 -> 552 ;
553 [label=<squared_error = 0.0<br/>samples = 1<br/>value = 328.206>, fillcolor="#ffffff"] ;
549 -> 553 ;
554 [label=<Close &le; 330.286<br/>squared_error = 0.828<br/>samples = 6<br/>value = 330.338>, fillcolor="#ffffff"] ;
532 -> 554 ;
555 [label=<Low &le; 320.965<br/>squared_error = 0.297<br/>samples = 3<br/>value = 329.634>, fillcolor="#ffffff"] ;
554 -> 555 ;
556 [label=<Volume &le; 49934250.0<br/>squared_error = 0.004<br/>samples = 2<br/>value = 330.018>, fillcolor="#ffffff"] ;
555 -> 556 ;
557 [label=<squared_error = 0.0<br/>samples = 1<br/>value = 329.956>, fillcolor="#ffffff"] ;
556 -> 557 ;
558 [label=<squared_error = 0.0<br/>samples = 1<br/>value = 330.079>, fillcolor="#ffffff"] ;
556 -> 558 ;
559 [label=<squared_error = 0.0<br/>samples = 1<br/>value = 328.866>, fillcolor="#ffffff"] ;
555 -> 559 ;
560 [label=<High &le; 332.942<br/>squared_error = 0.366<br/>samples = 3<br/>value = 331.043>, fillcolor="#ffffff"] ;
554 -> 560 ;
561 [label=<Low &le; 320.491<br/>squared_error = 0.017<br/>samples = 2<br/>value = 330.622>, fillcolor="#ffffff"] ;
560 -> 561 ;
562 [label=<squared_error = 0.0<br/>samples = 1<br/>value = 330.751>, fillcolor="#ffffff"] ;
561 -> 562 ;
563 [label=<squared_error = 0.0<br/>samples = 1<br/>value = 330.492>, fillcolor="#ffffff"] ;
561 -> 563 ;
564 [label=<squared_error = 0.0<br/>samples = 1<br/>value = 331.886>, fillcolor="#ffffff"] ;
560 -> 564 ;
565 [label=<Close &le; 337.486<br/>squared_error = 6.431<br/>samples = 10<br/>value = 336.465>, fillcolor="#ffffff"] ;
531 -> 565 ;
566 [label=<High &le; 338.799<br/>squared_error = 1.39<br/>samples = 7<br/>value = 335.108>, fillcolor="#ffffff"] ;
565 -> 566 ;
567 [label=<Close &le; 333.739<br/>squared_error = 0.683<br/>samples = 4<br/>value = 334.29>, fillcolor="#ffffff"] ;
566 -> 567 ;
568 [label=<squared_error = 0.0<br/>samples = 1<br/>value = 332.906>, fillcolor="#ffffff"] ;
567 -> 568 ;
569 [label=<High &le; 337.441<br/>squared_error = 0.059<br/>samples = 3<br/>value = 334.752>, fillcolor="#ffffff"] ;
567 -> 569 ;
570 [label=<High &le; 336.409<br/>squared_error = 0.0<br/>samples = 2<br/>value = 334.581>, fillcolor="#ffffff"] ;
569 -> 570 ;
571 [label=<squared_error = 0.0<br/>samples = 1<br/>value = 334.572>, fillcolor="#ffffff"] ;
570 -> 571 ;
572 [label=<squared_error = 0.0<br/>samples = 1<br/>value = 334.59>, fillcolor="#ffffff"] ;
570 -> 572 ;
573 [label=<squared_error = 0.0<br/>samples = 1<br/>value = 335.094>, fillcolor="#ffffff"] ;
569 -> 573 ;
574 [label=<Volume &le; 72498902.0<br/>squared_error = 0.251<br/>samples = 3<br/>value = 336.199>, fillcolor="#ffffff"] ;
566 -> 574 ;
575 [label=<Open &le; 343.837<br/>squared_error = 0.089<br/>samples = 2<br/>value = 335.889>, fillcolor="#ffffff"] ;
574 -> 575 ;
576 [label=<squared_error = 0.0<br/>samples = 1<br/>value = 336.187>, fillcolor="#ffffff"] ;
575 -> 576 ;
577 [label=<squared_error = 0.0<br/>samples = 1<br/>value = 335.591>, fillcolor="#ffffff"] ;
575 -> 577 ;
578 [label=<squared_error = 0.0<br/>samples = 1<br/>value = 336.819>, fillcolor="#ffffff"] ;
574 -> 578 ;
579 [label=<High &le; 350.389<br/>squared_error = 3.885<br/>samples = 3<br/>value = 339.629>, fillcolor="#ffffff"] ;
565 -> 579 ;
580 [label=<Volume &le; 45511600.0<br/>squared_error = 0.007<br/>samples = 2<br/>value = 338.237>, fillcolor="#ffffff"] ;
579 -> 580 ;
581 [label=<squared_error = 0.0<br/>samples = 1<br/>value = 338.321>, fillcolor="#ffffff"] ;
580 -> 581 ;
582 [label=<squared_error = 0.0<br/>samples = 1<br/>value = 338.152>, fillcolor="#ffffff"] ;
580 -> 582 ;
583 [label=<squared_error = 0.0<br/>samples = 1<br/>value = 342.415>, fillcolor="#ffffff"] ;
579 -> 583 ;
584 [label=<Close &le; 355.161<br/>squared_error = 33.904<br/>samples = 28<br/>value = 354.398>, fillcolor="#fffffe"] ;
530 -> 584 ;
585 [label=<Close &le; 348.333<br/>squared_error = 8.533<br/>samples = 15<br/>value = 349.515>, fillcolor="#fffffe"] ;
584 -> 585 ;
586 [label=<Open &le; 351.783<br/>squared_error = 0.766<br/>samples = 6<br/>value = 346.192>, fillcolor="#ffffff"] ;
585 -> 586 ;
587 [label=<High &le; 348.973<br/>squared_error = 0.006<br/>samples = 3<br/>value = 345.379>, fillcolor="#ffffff"] ;
586 -> 587 ;
588 [label=<squared_error = 0.0<br/>samples = 1<br/>value = 345.488>, fillcolor="#ffffff"] ;
587 -> 588 ;
589 [label=<Open &le; 343.535<br/>squared_error = 0.0<br/>samples = 2<br/>value = 345.325>, fillcolor="#ffffff"] ;
587 -> 589 ;
590 [label=<squared_error = 0.0<br/>samples = 1<br/>value = 345.305>, fillcolor="#ffffff"] ;
589 -> 590 ;
591 [label=<squared_error = 0.0<br/>samples = 1<br/>value = 345.345>, fillcolor="#ffffff"] ;
589 -> 591 ;
592 [label=<Close &le; 346.818<br/>squared_error = 0.206<br/>samples = 3<br/>value = 347.004>, fillcolor="#ffffff"] ;
586 -> 592 ;
593 [label=<squared_error = 0.0<br/>samples = 1<br/>value = 346.365>, fillcolor="#ffffff"] ;
592 -> 593 ;
594 [label=<Open &le; 355.496<br/>squared_error = 0.003<br/>samples = 2<br/>value = 347.324>, fillcolor="#ffffff"] ;
592 -> 594 ;
595 [label=<squared_error = 0.0<br/>samples = 1<br/>value = 347.376>, fillcolor="#ffffff"] ;
594 -> 595 ;
596 [label=<squared_error = 0.0<br/>samples = 1<br/>value = 347.271>, fillcolor="#ffffff"] ;
594 -> 596 ;
597 [label=<Close &le; 351.24<br/>squared_error = 1.436<br/>samples = 9<br/>value = 351.731>, fillcolor="#fffffe"] ;
585 -> 597 ;
598 [label=<Close &le; 349.898<br/>squared_error = 0.447<br/>samples = 3<br/>value = 350.215>, fillcolor="#fffffe"] ;
597 -> 598 ;
599 [label=<squared_error = 0.0<br/>samples = 1<br/>value = 349.29>, fillcolor="#fffffe"] ;
598 -> 599 ;
600 [label=<Close &le; 350.677<br/>squared_error = 0.029<br/>samples = 2<br/>value = 350.677>, fillcolor="#fffffe"] ;
598 -> 600 ;
601 [label=<squared_error = 0.0<br/>samples = 1<br/>value = 350.506>, fillcolor="#fffffe"] ;
600 -> 601 ;
602 [label=<squared_error = 0.0<br/>samples = 1<br/>value = 350.848>, fillcolor="#fffffe"] ;
600 -> 602 ;
603 [label=<Close &le; 352.38<br/>squared_error = 0.206<br/>samples = 6<br/>value = 352.489>, fillcolor="#fffffe"] ;
597 -> 603 ;
604 [label=<Open &le; 354.311<br/>squared_error = 0.086<br/>samples = 2<br/>value = 351.925>, fillcolor="#fffffe"] ;
603 -> 604 ;
605 [label=<squared_error = 0.0<br/>samples = 1<br/>value = 351.632>, fillcolor="#fffffe"] ;
604 -> 605 ;
606 [label=<squared_error = 0.0<br/>samples = 1<br/>value = 352.219>, fillcolor="#fffffe"] ;
604 -> 606 ;
607 [label=<Close &le; 352.802<br/>squared_error = 0.028<br/>samples = 4<br/>value = 352.771>, fillcolor="#fffffe"] ;
603 -> 607 ;
608 [label=<Low &le; 338.76<br/>squared_error = 0.005<br/>samples = 2<br/>value = 352.613>, fillcolor="#fffffe"] ;
607 -> 608 ;
609 [label=<squared_error = 0.0<br/>samples = 1<br/>value = 352.684>, fillcolor="#fffffe"] ;
608 -> 609 ;
610 [label=<squared_error = 0.0<br/>samples = 1<br/>value = 352.542>, fillcolor="#fffffe"] ;
608 -> 610 ;
611 [label=<Low &le; 339.033<br/>squared_error = 0.0<br/>samples = 2<br/>value = 352.93>, fillcolor="#fffffe"] ;
607 -> 611 ;
612 [label=<squared_error = 0.0<br/>samples = 1<br/>value = 352.94>, fillcolor="#fffffe"] ;
611 -> 612 ;
613 [label=<squared_error = 0.0<br/>samples = 1<br/>value = 352.92>, fillcolor="#fffffe"] ;
611 -> 613 ;
614 [label=<Close &le; 360.279<br/>squared_error = 3.93<br/>samples = 13<br/>value = 360.032>, fillcolor="#fffffe"] ;
584 -> 614 ;
615 [label=<Close &le; 358.802<br/>squared_error = 0.541<br/>samples = 7<br/>value = 358.329>, fillcolor="#fffffe"] ;
614 -> 615 ;
616 [label=<Close &le; 358.092<br/>squared_error = 0.163<br/>samples = 5<br/>value = 357.92>, fillcolor="#fffffe"] ;
615 -> 616 ;
617 [label=<Close &le; 357.5<br/>squared_error = 0.035<br/>samples = 3<br/>value = 357.613>, fillcolor="#fffffe"] ;
616 -> 617 ;
618 [label=<squared_error = 0.0<br/>samples = 1<br/>value = 357.381>, fillcolor="#fffffe"] ;
617 -> 618 ;
619 [label=<Volume &le; 16539540.0<br/>squared_error = 0.012<br/>samples = 2<br/>value = 357.729>, fillcolor="#fffffe"] ;
617 -> 619 ;
620 [label=<squared_error = 0.0<br/>samples = 1<br/>value = 357.618>, fillcolor="#fffffe"] ;
619 -> 620 ;
621 [label=<squared_error = 0.0<br/>samples = 1<br/>value = 357.84>, fillcolor="#fffffe"] ;
619 -> 621 ;
622 [label=<Low &le; 354.876<br/>squared_error = 0.001<br/>samples = 2<br/>value = 358.381>, fillcolor="#fffffe"] ;
616 -> 622 ;
623 [label=<squared_error = 0.0<br/>samples = 1<br/>value = 358.345>, fillcolor="#fffffe"] ;
622 -> 623 ;
624 [label=<squared_error = 0.0<br/>samples = 1<br/>value = 358.417>, fillcolor="#fffffe"] ;
622 -> 624 ;
625 [label=<High &le; 369.964<br/>squared_error = 0.026<br/>samples = 2<br/>value = 359.35>, fillcolor="#fffffe"] ;
615 -> 625 ;
626 [label=<squared_error = 0.0<br/>samples = 1<br/>value = 359.187>, fillcolor="#fffffe"] ;
625 -> 626 ;
627 [label=<squared_error = 0.0<br/>samples = 1<br/>value = 359.512>, fillcolor="#fffffe"] ;
625 -> 627 ;
628 [label=<Close &le; 362.104<br/>squared_error = 0.55<br/>samples = 6<br/>value = 362.019>, fillcolor="#fffffe"] ;
614 -> 628 ;
629 [label=<Open &le; 367.148<br/>squared_error = 0.143<br/>samples = 3<br/>value = 361.381>, fillcolor="#fffffe"] ;
628 -> 629 ;
630 [label=<Open &le; 342.636<br/>squared_error = 0.005<br/>samples = 2<br/>value = 361.117>, fillcolor="#fffffe"] ;
629 -> 630 ;
631 [label=<squared_error = 0.0<br/>samples = 1<br/>value = 361.189>, fillcolor="#fffffe"] ;
630 -> 631 ;
632 [label=<squared_error = 0.0<br/>samples = 1<br/>value = 361.046>, fillcolor="#fffffe"] ;
630 -> 632 ;
633 [label=<squared_error = 0.0<br/>samples = 1<br/>value = 361.909>, fillcolor="#fffffe"] ;
629 -> 633 ;
634 [label=<Low &le; 355.854<br/>squared_error = 0.144<br/>samples = 3<br/>value = 362.657>, fillcolor="#fffffe"] ;
628 -> 634 ;
635 [label=<squared_error = 0.0<br/>samples = 1<br/>value = 363.183>, fillcolor="#fffffe"] ;
634 -> 635 ;
636 [label=<High &le; 373.061<br/>squared_error = 0.009<br/>samples = 2<br/>value = 362.394>, fillcolor="#fffffe"] ;
634 -> 636 ;
637 [label=<squared_error = 0.0<br/>samples = 1<br/>value = 362.299>, fillcolor="#fffffe"] ;
636 -> 637 ;
638 [label=<squared_error = 0.0<br/>samples = 1<br/>value = 362.488>, fillcolor="#fffffe"] ;
636 -> 638 ;
639 [label=<Open &le; 469.645<br/>squared_error = 6929.646<br/>samples = 247<br/>value = 463.512>, fillcolor="#fffefe"] ;
5 -> 639 ;
640 [label=<Close &le; 409.583<br/>squared_error = 808.371<br/>samples = 179<br/>value = 414.978>, fillcolor="#fffffe"] ;
639 -> 640 ;
641 [label=<Close &le; 385.309<br/>squared_error = 112.657<br/>samples = 70<br/>value = 384.084>, fillcolor="#fffffe"] ;
640 -> 641 ;
642 [label=<Close &le; 373.958<br/>squared_error = 19.631<br/>samples = 39<br/>value = 376.158>, fillcolor="#fffffe"] ;
641 -> 642 ;
643 [label=<Close &le; 370.622<br/>squared_error = 5.451<br/>samples = 10<br/>value = 370.258>, fillcolor="#fffffe"] ;
642 -> 643 ;
644 [label=<Open &le; 368.18<br/>squared_error = 1.442<br/>samples = 6<br/>value = 368.569>, fillcolor="#fffffe"] ;
643 -> 644 ;
645 [label=<Close &le; 367.249<br/>squared_error = 0.115<br/>samples = 3<br/>value = 367.397>, fillcolor="#fffffe"] ;
644 -> 645 ;
646 [label=<squared_error = 0.0<br/>samples = 1<br/>value = 366.924>, fillcolor="#fffffe"] ;
645 -> 646 ;
647 [label=<Volume &le; 15495250.0<br/>squared_error = 0.004<br/>samples = 2<br/>value = 367.634>, fillcolor="#fffffe"] ;
645 -> 647 ;
648 [label=<squared_error = 0.0<br/>samples = 1<br/>value = 367.573>, fillcolor="#fffffe"] ;
647 -> 648 ;
649 [label=<squared_error = 0.0<br/>samples = 1<br/>value = 367.695>, fillcolor="#fffffe"] ;
647 -> 649 ;
650 [label=<Volume &le; 30231500.0<br/>squared_error = 0.022<br/>samples = 3<br/>value = 369.741>, fillcolor="#fffffe"] ;
644 -> 650 ;
651 [label=<Volume &le; 11638815.0<br/>squared_error = 0.001<br/>samples = 2<br/>value = 369.637>, fillcolor="#fffffe"] ;
650 -> 651 ;
652 [label=<squared_error = 0.0<br/>samples = 1<br/>value = 369.67>, fillcolor="#fffffe"] ;
651 -> 652 ;
653 [label=<squared_error = 0.0<br/>samples = 1<br/>value = 369.604>, fillcolor="#fffffe"] ;
651 -> 653 ;
654 [label=<squared_error = 0.0<br/>samples = 1<br/>value = 369.949>, fillcolor="#fffffe"] ;
650 -> 654 ;
655 [label=<Volume &le; 44040200.0<br/>squared_error = 0.769<br/>samples = 4<br/>value = 372.791>, fillcolor="#fffffe"] ;
643 -> 655 ;
656 [label=<squared_error = 0.0<br/>samples = 1<br/>value = 371.294>, fillcolor="#fffffe"] ;
655 -> 656 ;
657 [label=<High &le; 378.975<br/>squared_error = 0.028<br/>samples = 3<br/>value = 373.29>, fillcolor="#fffffe"] ;
655 -> 657 ;
658 [label=<squared_error = 0.0<br/>samples = 1<br/>value = 373.056>, fillcolor="#fffffe"] ;
657 -> 658 ;
659 [label=<Low &le; 371.017<br/>squared_error = 0.002<br/>samples = 2<br/>value = 373.408>, fillcolor="#fffffe"] ;
657 -> 659 ;
660 [label=<squared_error = 0.0<br/>samples = 1<br/>value = 373.368>, fillcolor="#fffffe"] ;
659 -> 660 ;
661 [label=<squared_error = 0.0<br/>samples = 1<br/>value = 373.447>, fillcolor="#fffffe"] ;
659 -> 661 ;
662 [label=<Close &le; 378.897<br/>squared_error = 8.377<br/>samples = 29<br/>value = 378.193>, fillcolor="#fffffe"] ;
642 -> 662 ;
663 [label=<Close &le; 376.29<br/>squared_error = 1.368<br/>samples = 19<br/>value = 376.336>, fillcolor="#fffffe"] ;
662 -> 663 ;
664 [label=<Close &le; 375.333<br/>squared_error = 0.264<br/>samples = 9<br/>value = 375.298>, fillcolor="#fffffe"] ;
663 -> 664 ;
665 [label=<Low &le; 371.031<br/>squared_error = 0.067<br/>samples = 5<br/>value = 374.912>, fillcolor="#fffffe"] ;
664 -> 665 ;
666 [label=<Open &le; 382.402<br/>squared_error = 0.025<br/>samples = 2<br/>value = 374.628>, fillcolor="#fffffe"] ;
665 -> 666 ;
667 [label=<squared_error = 0.0<br/>samples = 1<br/>value = 374.785>, fillcolor="#fffffe"] ;
666 -> 667 ;
668 [label=<squared_error = 0.0<br/>samples = 1<br/>value = 374.47>, fillcolor="#fffffe"] ;
666 -> 668 ;
669 [label=<Close &le; 375.146<br/>squared_error = 0.006<br/>samples = 3<br/>value = 375.101>, fillcolor="#fffffe"] ;
665 -> 669 ;
670 [label=<Low &le; 373.811<br/>squared_error = 0.002<br/>samples = 2<br/>value = 375.053>, fillcolor="#fffffe"] ;
669 -> 670 ;
671 [label=<squared_error = 0.0<br/>samples = 1<br/>value = 375.095>, fillcolor="#fffffe"] ;
670 -> 671 ;
672 [label=<squared_error = 0.0<br/>samples = 1<br/>value = 375.01>, fillcolor="#fffffe"] ;
670 -> 672 ;
673 [label=<squared_error = 0.0<br/>samples = 1<br/>value = 375.198>, fillcolor="#fffffe"] ;
669 -> 673 ;
674 [label=<Close &le; 375.76<br/>squared_error = 0.092<br/>samples = 4<br/>value = 375.78>, fillcolor="#fffffe"] ;
664 -> 674 ;
675 [label=<Low &le; 372.192<br/>squared_error = 0.0<br/>samples = 2<br/>value = 375.479>, fillcolor="#fffffe"] ;
674 -> 675 ;
676 [label=<squared_error = 0.0<br/>samples = 1<br/>value = 375.491>, fillcolor="#fffffe"] ;
675 -> 676 ;
677 [label=<squared_error = 0.0<br/>samples = 1<br/>value = 375.467>, fillcolor="#fffffe"] ;
675 -> 677 ;
678 [label=<Close &le; 376.081<br/>squared_error = 0.003<br/>samples = 2<br/>value = 376.081>, fillcolor="#fffffe"] ;
674 -> 678 ;
679 [label=<squared_error = 0.0<br/>samples = 1<br/>value = 376.029>, fillcolor="#fffffe"] ;
678 -> 679 ;
680 [label=<squared_error = 0.0<br/>samples = 1<br/>value = 376.133>, fillcolor="#fffffe"] ;
678 -> 680 ;
681 [label=<Close &le; 377.684<br/>squared_error = 0.519<br/>samples = 10<br/>value = 377.27>, fillcolor="#fffffe"] ;
663 -> 681 ;
682 [label=<Close &le; 376.737<br/>squared_error = 0.094<br/>samples = 7<br/>value = 376.835>, fillcolor="#fffffe"] ;
681 -> 682 ;
683 [label=<Close &le; 376.571<br/>squared_error = 0.005<br/>samples = 3<br/>value = 376.53>, fillcolor="#fffffe"] ;
682 -> 683 ;
684 [label=<Open &le; 377.981<br/>squared_error = 0.001<br/>samples = 2<br/>value = 376.484>, fillcolor="#fffffe"] ;
683 -> 684 ;
685 [label=<squared_error = 0.0<br/>samples = 1<br/>value = 376.447>, fillcolor="#fffffe"] ;
684 -> 685 ;
686 [label=<squared_error = 0.0<br/>samples = 1<br/>value = 376.522>, fillcolor="#fffffe"] ;
684 -> 686 ;
687 [label=<squared_error = 0.0<br/>samples = 1<br/>value = 376.62>, fillcolor="#fffffe"] ;
683 -> 687 ;
688 [label=<Low &le; 368.526<br/>squared_error = 0.038<br/>samples = 4<br/>value = 377.064>, fillcolor="#fffffe"] ;
682 -> 688 ;
689 [label=<Open &le; 368.195<br/>squared_error = 0.001<br/>samples = 2<br/>value = 376.878>, fillcolor="#fffffe"] ;
688 -> 689 ;
690 [label=<squared_error = 0.0<br/>samples = 1<br/>value = 376.901>, fillcolor="#fffffe"] ;
689 -> 690 ;
691 [label=<squared_error = 0.0<br/>samples = 1<br/>value = 376.854>, fillcolor="#fffffe"] ;
689 -> 691 ;
692 [label=<Volume &le; 47657450.0<br/>squared_error = 0.005<br/>samples = 2<br/>value = 377.251>, fillcolor="#fffffe"] ;
688 -> 692 ;
693 [label=<squared_error = 0.0<br/>samples = 1<br/>value = 377.181>, fillcolor="#fffffe"] ;
692 -> 693 ;
694 [label=<squared_error = 0.0<br/>samples = 1<br/>value = 377.321>, fillcolor="#fffffe"] ;
692 -> 694 ;
695 [label=<High &le; 380.175<br/>squared_error = 0.042<br/>samples = 3<br/>value = 378.284>, fillcolor="#fffffe"] ;
681 -> 695 ;
696 [label=<squared_error = 0.0<br/>samples = 1<br/>value = 378.549>, fillcolor="#fffffe"] ;
695 -> 696 ;
697 [label=<Low &le; 374.9<br/>squared_error = 0.011<br/>samples = 2<br/>value = 378.151>, fillcolor="#fffffe"] ;
695 -> 697 ;
698 [label=<squared_error = 0.0<br/>samples = 1<br/>value = 378.047>, fillcolor="#fffffe"] ;
697 -> 698 ;
699 [label=<squared_error = 0.0<br/>samples = 1<br/>value = 378.255>, fillcolor="#fffffe"] ;
697 -> 699 ;
700 [label=<Close &le; 381.102<br/>squared_error = 2.686<br/>samples = 10<br/>value = 381.722>, fillcolor="#fffffe"] ;
662 -> 700 ;
701 [label=<High &le; 385.071<br/>squared_error = 0.266<br/>samples = 4<br/>value = 379.936>, fillcolor="#fffffe"] ;
700 -> 701 ;
702 [label=<Open &le; 380.182<br/>squared_error = 0.042<br/>samples = 2<br/>value = 379.449>, fillcolor="#fffffe"] ;
701 -> 702 ;
703 [label=<squared_error = 0.0<br/>samples = 1<br/>value = 379.245>, fillcolor="#fffffe"] ;
702 -> 703 ;
704 [label=<squared_error = 0.0<br/>samples = 1<br/>value = 379.654>, fillcolor="#fffffe"] ;
702 -> 704 ;
705 [label=<Open &le; 384.521<br/>squared_error = 0.018<br/>samples = 2<br/>value = 380.422>, fillcolor="#fffffe"] ;
701 -> 705 ;
706 [label=<squared_error = 0.0<br/>samples = 1<br/>value = 380.555>, fillcolor="#fffffe"] ;
705 -> 706 ;
707 [label=<squared_error = 0.0<br/>samples = 1<br/>value = 380.289>, fillcolor="#fffffe"] ;
705 -> 707 ;
708 [label=<Close &le; 382.825<br/>squared_error = 0.755<br/>samples = 6<br/>value = 382.913>, fillcolor="#fffffe"] ;
700 -> 708 ;
709 [label=<Open &le; 381.649<br/>squared_error = 0.13<br/>samples = 3<br/>value = 382.147>, fillcolor="#fffffe"] ;
708 -> 709 ;
710 [label=<squared_error = 0.0<br/>samples = 1<br/>value = 381.649>, fillcolor="#fffffe"] ;
709 -> 710 ;
711 [label=<Low &le; 377.687<br/>squared_error = 0.009<br/>samples = 2<br/>value = 382.396>, fillcolor="#fffffe"] ;
709 -> 711 ;
712 [label=<squared_error = 0.0<br/>samples = 1<br/>value = 382.492>, fillcolor="#fffffe"] ;
711 -> 712 ;
713 [label=<squared_error = 0.0<br/>samples = 1<br/>value = 382.299>, fillcolor="#fffffe"] ;
711 -> 713 ;
714 [label=<Open &le; 382.902<br/>squared_error = 0.206<br/>samples = 3<br/>value = 383.679>, fillcolor="#fffffe"] ;
708 -> 714 ;
715 [label=<squared_error = 0.0<br/>samples = 1<br/>value = 384.263>, fillcolor="#fffffe"] ;
714 -> 715 ;
716 [label=<Close &le; 383.386<br/>squared_error = 0.052<br/>samples = 2<br/>value = 383.386>, fillcolor="#fffffe"] ;
714 -> 716 ;
717 [label=<squared_error = 0.0<br/>samples = 1<br/>value = 383.158>, fillcolor="#fffffe"] ;
716 -> 717 ;
718 [label=<squared_error = 0.0<br/>samples = 1<br/>value = 383.615>, fillcolor="#fffffe"] ;
716 -> 718 ;
719 [label=<Close &le; 396.395<br/>squared_error = 51.239<br/>samples = 31<br/>value = 394.055>, fillcolor="#fffffe"] ;
641 -> 719 ;
720 [label=<Close &le; 390.928<br/>squared_error = 7.94<br/>samples = 20<br/>value = 389.264>, fillcolor="#fffffe"] ;
719 -> 720 ;
721 [label=<Close &le; 388.332<br/>squared_error = 1.598<br/>samples = 15<br/>value = 387.838>, fillcolor="#fffffe"] ;
720 -> 721 ;
722 [label=<Close &le; 387.056<br/>squared_error = 0.266<br/>samples = 10<br/>value = 387.029>, fillcolor="#fffffe"] ;
721 -> 722 ;
723 [label=<Close &le; 386.747<br/>squared_error = 0.041<br/>samples = 5<br/>value = 386.561>, fillcolor="#fffffe"] ;
722 -> 723 ;
724 [label=<Open &le; 398.488<br/>squared_error = 0.005<br/>samples = 4<br/>value = 386.465>, fillcolor="#fffffe"] ;
723 -> 724 ;
725 [label=<Low &le; 383.203<br/>squared_error = 0.001<br/>samples = 3<br/>value = 386.502>, fillcolor="#fffffe"] ;
724 -> 725 ;
726 [label=<Low &le; 376.634<br/>squared_error = 0.0<br/>samples = 2<br/>value = 386.479>, fillcolor="#fffffe"] ;
725 -> 726 ;
727 [label=<squared_error = 0.0<br/>samples = 1<br/>value = 386.482>, fillcolor="#fffffe"] ;
726 -> 727 ;
728 [label=<squared_error = 0.0<br/>samples = 1<br/>value = 386.475>, fillcolor="#fffffe"] ;
726 -> 728 ;
729 [label=<squared_error = 0.0<br/>samples = 1<br/>value = 386.549>, fillcolor="#fffffe"] ;
725 -> 729 ;
730 [label=<squared_error = 0.0<br/>samples = 1<br/>value = 386.354>, fillcolor="#fffffe"] ;
724 -> 730 ;
731 [label=<squared_error = 0.0<br/>samples = 1<br/>value = 386.944>, fillcolor="#fffffe"] ;
723 -> 731 ;
732 [label=<Close &le; 387.709<br/>squared_error = 0.053<br/>samples = 5<br/>value = 387.497>, fillcolor="#fffffe"] ;
722 -> 732 ;
733 [label=<Close &le; 387.288<br/>squared_error = 0.02<br/>samples = 4<br/>value = 387.401>, fillcolor="#fffffe"] ;
732 -> 733 ;
734 [label=<squared_error = 0.0<br/>samples = 1<br/>value = 387.168>, fillcolor="#fffffe"] ;
733 -> 734 ;
735 [label=<Volume &le; 48883100.0<br/>squared_error = 0.003<br/>samples = 3<br/>value = 387.478>, fillcolor="#fffffe"] ;
733 -> 735 ;
736 [label=<squared_error = 0.0<br/>samples = 1<br/>value = 387.408>, fillcolor="#fffffe"] ;
735 -> 736 ;
737 [label=<Open &le; 373.753<br/>squared_error = 0.001<br/>samples = 2<br/>value = 387.514>, fillcolor="#fffffe"] ;
735 -> 737 ;
738 [label=<squared_error = 0.0<br/>samples = 1<br/>value = 387.536>, fillcolor="#fffffe"] ;
737 -> 738 ;
739 [label=<squared_error = 0.0<br/>samples = 1<br/>value = 387.491>, fillcolor="#fffffe"] ;
737 -> 739 ;
740 [label=<squared_error = 0.0<br/>samples = 1<br/>value = 387.882>, fillcolor="#fffffe"] ;
732 -> 740 ;
741 [label=<Close &le; 389.247<br/>squared_error = 0.331<br/>samples = 5<br/>value = 389.457>, fillcolor="#fffffe"] ;
721 -> 741 ;
742 [label=<High &le; 396.297<br/>squared_error = 0.007<br/>samples = 2<br/>value = 388.866>, fillcolor="#fffffe"] ;
741 -> 742 ;
743 [label=<squared_error = 0.0<br/>samples = 1<br/>value = 388.949>, fillcolor="#fffffe"] ;
742 -> 743 ;
744 [label=<squared_error = 0.0<br/>samples = 1<br/>value = 388.783>, fillcolor="#fffffe"] ;
742 -> 744 ;
745 [label=<Close &le; 390.004<br/>squared_error = 0.159<br/>samples = 3<br/>value = 389.851>, fillcolor="#fffffe"] ;
741 -> 745 ;
746 [label=<Volume &le; 37600037.0<br/>squared_error = 0.001<br/>samples = 2<br/>value = 389.57>, fillcolor="#fffffe"] ;
745 -> 746 ;
747 [label=<squared_error = 0.0<br/>samples = 1<br/>value = 389.546>, fillcolor="#fffffe"] ;
746 -> 747 ;
748 [label=<squared_error = 0.0<br/>samples = 1<br/>value = 389.594>, fillcolor="#fffffe"] ;
746 -> 748 ;
749 [label=<squared_error = 0.0<br/>samples = 1<br/>value = 390.414>, fillcolor="#fffffe"] ;
745 -> 749 ;
750 [label=<Close &le; 393.25<br/>squared_error = 2.568<br/>samples = 5<br/>value = 393.542>, fillcolor="#fffffe"] ;
720 -> 750 ;
751 [label=<High &le; 398.737<br/>squared_error = 0.02<br/>samples = 2<br/>value = 391.584>, fillcolor="#fffffe"] ;
750 -> 751 ;
752 [label=<squared_error = 0.0<br/>samples = 1<br/>value = 391.442>, fillcolor="#fffffe"] ;
751 -> 752 ;
753 [label=<squared_error = 0.0<br/>samples = 1<br/>value = 391.726>, fillcolor="#fffffe"] ;
751 -> 753 ;
754 [label=<Volume &le; 42672050.0<br/>squared_error = 0.008<br/>samples = 3<br/>value = 394.847>, fillcolor="#fffffe"] ;
750 -> 754 ;
755 [label=<High &le; 415.031<br/>squared_error = 0.0<br/>samples = 2<br/>value = 394.785>, fillcolor="#fffffe"] ;
754 -> 755 ;
756 [label=<squared_error = 0.0<br/>samples = 1<br/>value = 394.773>, fillcolor="#fffffe"] ;
755 -> 756 ;
757 [label=<squared_error = 0.0<br/>samples = 1<br/>value = 394.796>, fillcolor="#fffffe"] ;
755 -> 757 ;
758 [label=<squared_error = 0.0<br/>samples = 1<br/>value = 394.972>, fillcolor="#fffffe"] ;
754 -> 758 ;
759 [label=<Close &le; 405.324<br/>squared_error = 12.352<br/>samples = 11<br/>value = 402.766>, fillcolor="#fffffe"] ;
719 -> 759 ;
760 [label=<Close &le; 401.511<br/>squared_error = 3.327<br/>samples = 8<br/>value = 400.851>, fillcolor="#fffffe"] ;
759 -> 760 ;
761 [label=<Close &le; 399.503<br/>squared_error = 1.333<br/>samples = 5<br/>value = 399.653>, fillcolor="#fffffe"] ;
760 -> 761 ;
762 [label=<Open &le; 413.251<br/>squared_error = 0.252<br/>samples = 2<br/>value = 398.32>, fillcolor="#fffffe"] ;
761 -> 762 ;
763 [label=<squared_error = 0.0<br/>samples = 1<br/>value = 398.821>, fillcolor="#fffffe"] ;
762 -> 763 ;
764 [label=<squared_error = 0.0<br/>samples = 1<br/>value = 397.818>, fillcolor="#fffffe"] ;
762 -> 764 ;
765 [label=<High &le; 410.819<br/>squared_error = 0.079<br/>samples = 3<br/>value = 400.542>, fillcolor="#fffffe"] ;
761 -> 765 ;
766 [label=<squared_error = 0.0<br/>samples = 1<br/>value = 400.185>, fillcolor="#fffffe"] ;
765 -> 766 ;
767 [label=<Close &le; 400.72<br/>squared_error = 0.022<br/>samples = 2<br/>value = 400.72>, fillcolor="#fffffe"] ;
765 -> 767 ;
768 [label=<squared_error = 0.0<br/>samples = 1<br/>value = 400.57>, fillcolor="#fffffe"] ;
767 -> 768 ;
769 [label=<squared_error = 0.0<br/>samples = 1<br/>value = 400.87>, fillcolor="#fffffe"] ;
767 -> 769 ;
770 [label=<Close &le; 402.562<br/>squared_error = 0.274<br/>samples = 3<br/>value = 402.847>, fillcolor="#fffffe"] ;
760 -> 770 ;
771 [label=<squared_error = 0.0<br/>samples = 1<br/>value = 402.152>, fillcolor="#fffffe"] ;
770 -> 771 ;
772 [label=<High &le; 411.692<br/>squared_error = 0.05<br/>samples = 2<br/>value = 403.194>, fillcolor="#fffffe"] ;
770 -> 772 ;
773 [label=<squared_error = 0.0<br/>samples = 1<br/>value = 402.971>, fillcolor="#fffffe"] ;
772 -> 773 ;
774 [label=<squared_error = 0.0<br/>samples = 1<br/>value = 403.417>, fillcolor="#fffffe"] ;
772 -> 774 ;
775 [label=<Close &le; 408.196<br/>squared_error = 0.542<br/>samples = 3<br/>value = 407.874>, fillcolor="#fffffe"] ;
759 -> 775 ;
776 [label=<Low &le; 397.182<br/>squared_error = 0.017<br/>samples = 2<br/>value = 407.359>, fillcolor="#fffffe"] ;
775 -> 776 ;
777 [label=<squared_error = 0.0<br/>samples = 1<br/>value = 407.23>, fillcolor="#fffffe"] ;
776 -> 777 ;
778 [label=<squared_error = 0.0<br/>samples = 1<br/>value = 407.488>, fillcolor="#fffffe"] ;
776 -> 778 ;
779 [label=<squared_error = 0.0<br/>samples = 1<br/>value = 408.904>, fillcolor="#fffffe"] ;
775 -> 779 ;
780 [label=<Close &le; 436.477<br/>squared_error = 248.598<br/>samples = 109<br/>value = 434.818>, fillcolor="#fffffe"] ;
640 -> 780 ;
781 [label=<Close &le; 421.921<br/>squared_error = 51.038<br/>samples = 60<br/>value = 422.124>, fillcolor="#fffffe"] ;
780 -> 781 ;
782 [label=<Close &le; 415.942<br/>squared_error = 11.496<br/>samples = 30<br/>value = 416.171>, fillcolor="#fffffe"] ;
781 -> 782 ;
783 [label=<Close &le; 412.465<br/>squared_error = 3.549<br/>samples = 13<br/>value = 412.962>, fillcolor="#fffffe"] ;
782 -> 783 ;
784 [label=<Close &le; 411.251<br/>squared_error = 0.311<br/>samples = 6<br/>value = 411.068>, fillcolor="#fffffe"] ;
783 -> 784 ;
785 [label=<Open &le; 420.734<br/>squared_error = 0.082<br/>samples = 3<br/>value = 410.548>, fillcolor="#fffffe"] ;
784 -> 785 ;
786 [label=<Close &le; 410.353<br/>squared_error = 0.008<br/>samples = 2<br/>value = 410.353>, fillcolor="#fffffe"] ;
785 -> 786 ;
787 [label=<squared_error = 0.0<br/>samples = 1<br/>value = 410.262>, fillcolor="#fffffe"] ;
786 -> 787 ;
788 [label=<squared_error = 0.0<br/>samples = 1<br/>value = 410.444>, fillcolor="#fffffe"] ;
786 -> 788 ;
789 [label=<squared_error = 0.0<br/>samples = 1<br/>value = 410.939>, fillcolor="#fffffe"] ;
785 -> 789 ;
790 [label=<Low &le; 409.781<br/>squared_error = 0.001<br/>samples = 3<br/>value = 411.587>, fillcolor="#fffffe"] ;
784 -> 790 ;
791 [label=<Close &le; 411.568<br/>squared_error = 0.0<br/>samples = 2<br/>value = 411.568>, fillcolor="#fffffe"] ;
790 -> 791 ;
792 [label=<squared_error = 0.0<br/>samples = 1<br/>value = 411.563>, fillcolor="#fffffe"] ;
791 -> 792 ;
793 [label=<squared_error = 0.0<br/>samples = 1<br/>value = 411.574>, fillcolor="#fffffe"] ;
791 -> 793 ;
794 [label=<squared_error = 0.0<br/>samples = 1<br/>value = 411.624>, fillcolor="#fffffe"] ;
790 -> 794 ;
795 [label=<Close &le; 414.569<br/>squared_error = 0.611<br/>samples = 7<br/>value = 414.586>, fillcolor="#fffffe"] ;
783 -> 795 ;
796 [label=<High &le; 415.271<br/>squared_error = 0.172<br/>samples = 3<br/>value = 413.794>, fillcolor="#fffffe"] ;
795 -> 796 ;
797 [label=<Open &le; 411.91<br/>squared_error = 0.05<br/>samples = 2<br/>value = 413.531>, fillcolor="#fffffe"] ;
796 -> 797 ;
798 [label=<squared_error = 0.0<br/>samples = 1<br/>value = 413.755>, fillcolor="#fffffe"] ;
797 -> 798 ;
799 [label=<squared_error = 0.0<br/>samples = 1<br/>value = 413.307>, fillcolor="#fffffe"] ;
797 -> 799 ;
800 [label=<squared_error = 0.0<br/>samples = 1<br/>value = 414.321>, fillcolor="#fffffe"] ;
796 -> 800 ;
801 [label=<Close &le; 415.169<br/>squared_error = 0.118<br/>samples = 4<br/>value = 415.179>, fillcolor="#fffffe"] ;
795 -> 801 ;
802 [label=<Close &le; 414.838<br/>squared_error = 0.0<br/>samples = 2<br/>value = 414.838>, fillcolor="#fffffe"] ;
801 -> 802 ;
803 [label=<squared_error = 0.0<br/>samples = 1<br/>value = 414.816>, fillcolor="#fffffe"] ;
802 -> 803 ;
804 [label=<squared_error = 0.0<br/>samples = 1<br/>value = 414.86>, fillcolor="#fffffe"] ;
802 -> 804 ;
805 [label=<Volume &le; 54970150.0<br/>squared_error = 0.002<br/>samples = 2<br/>value = 415.521>, fillcolor="#fffffe"] ;
801 -> 805 ;
806 [label=<squared_error = 0.0<br/>samples = 1<br/>value = 415.479>, fillcolor="#fffffe"] ;
805 -> 806 ;
807 [label=<squared_error = 0.0<br/>samples = 1<br/>value = 415.563>, fillcolor="#fffffe"] ;
805 -> 807 ;
808 [label=<Close &le; 419.16<br/>squared_error = 3.677<br/>samples = 17<br/>value = 418.625>, fillcolor="#fffffe"] ;
782 -> 808 ;
809 [label=<Close &le; 417.37<br/>squared_error = 0.36<br/>samples = 10<br/>value = 417.08>, fillcolor="#fffffe"] ;
808 -> 809 ;
810 [label=<Close &le; 416.87<br/>squared_error = 0.115<br/>samples = 7<br/>value = 416.743>, fillcolor="#fffffe"] ;
809 -> 810 ;
811 [label=<Close &le; 416.583<br/>squared_error = 0.024<br/>samples = 4<br/>value = 416.471>, fillcolor="#fffffe"] ;
810 -> 811 ;
812 [label=<High &le; 419.923<br/>squared_error = 0.002<br/>samples = 3<br/>value = 416.385>, fillcolor="#fffffe"] ;
811 -> 812 ;
813 [label=<Volume &le; 81803052.0<br/>squared_error = 0.0<br/>samples = 2<br/>value = 416.416>, fillcolor="#fffffe"] ;
812 -> 813 ;
814 [label=<squared_error = 0.0<br/>samples = 1<br/>value = 416.394>, fillcolor="#fffffe"] ;
813 -> 814 ;
815 [label=<squared_error = 0.0<br/>samples = 1<br/>value = 416.438>, fillcolor="#fffffe"] ;
813 -> 815 ;
816 [label=<squared_error = 0.0<br/>samples = 1<br/>value = 416.322>, fillcolor="#fffffe"] ;
812 -> 816 ;
817 [label=<squared_error = 0.0<br/>samples = 1<br/>value = 416.729>, fillcolor="#fffffe"] ;
811 -> 817 ;
818 [label=<Close &le; 417.071<br/>squared_error = 0.005<br/>samples = 3<br/>value = 417.106>, fillcolor="#fffffe"] ;
810 -> 818 ;
819 [label=<squared_error = 0.0<br/>samples = 1<br/>value = 417.011>, fillcolor="#fffffe"] ;
818 -> 819 ;
820 [label=<Volume &le; 66791448.0<br/>squared_error = 0.001<br/>samples = 2<br/>value = 417.154>, fillcolor="#fffffe"] ;
818 -> 820 ;
821 [label=<squared_error = 0.0<br/>samples = 1<br/>value = 417.177>, fillcolor="#fffffe"] ;
820 -> 821 ;
822 [label=<squared_error = 0.0<br/>samples = 1<br/>value = 417.131>, fillcolor="#fffffe"] ;
820 -> 822 ;
823 [label=<Close &le; 417.754<br/>squared_error = 0.049<br/>samples = 3<br/>value = 417.866>, fillcolor="#fffffe"] ;
809 -> 823 ;
824 [label=<squared_error = 0.0<br/>samples = 1<br/>value = 417.563>, fillcolor="#fffffe"] ;
823 -> 824 ;
825 [label=<Low &le; 414.395<br/>squared_error = 0.005<br/>samples = 2<br/>value = 418.017>, fillcolor="#fffffe"] ;
823 -> 825 ;
826 [label=<squared_error = 0.0<br/>samples = 1<br/>value = 418.089>, fillcolor="#fffffe"] ;
825 -> 826 ;
827 [label=<squared_error = 0.0<br/>samples = 1<br/>value = 417.945>, fillcolor="#fffffe"] ;
825 -> 827 ;
828 [label=<Close &le; 421.234<br/>squared_error = 0.132<br/>samples = 7<br/>value = 420.832>, fillcolor="#fffffe"] ;
808 -> 828 ;
829 [label=<Volume &le; 103482448.0<br/>squared_error = 0.05<br/>samples = 6<br/>value = 420.71>, fillcolor="#fffffe"] ;
828 -> 829 ;
830 [label=<Volume &le; 50696250.0<br/>squared_error = 0.005<br/>samples = 5<br/>value = 420.807>, fillcolor="#fffffe"] ;
829 -> 830 ;
831 [label=<Volume &le; 41867450.0<br/>squared_error = 0.0<br/>samples = 2<br/>value = 420.888>, fillcolor="#fffffe"] ;
830 -> 831 ;
832 [label=<squared_error = 0.0<br/>samples = 1<br/>value = 420.904>, fillcolor="#fffffe"] ;
831 -> 832 ;
833 [label=<squared_error = 0.0<br/>samples = 1<br/>value = 420.873>, fillcolor="#fffffe"] ;
831 -> 833 ;
834 [label=<Volume &le; 57328150.0<br/>squared_error = 0.001<br/>samples = 3<br/>value = 420.752>, fillcolor="#fffffe"] ;
830 -> 834 ;
835 [label=<squared_error = 0.0<br/>samples = 1<br/>value = 420.785>, fillcolor="#fffffe"] ;
834 -> 835 ;
836 [label=<Close &le; 420.735<br/>squared_error = 0.0<br/>samples = 2<br/>value = 420.735>, fillcolor="#fffffe"] ;
834 -> 836 ;
837 [label=<squared_error = 0.0<br/>samples = 1<br/>value = 420.735>, fillcolor="#fffffe"] ;
836 -> 837 ;
838 [label=<squared_error = 0.0<br/>samples = 1<br/>value = 420.736>, fillcolor="#fffffe"] ;
836 -> 838 ;
839 [label=<squared_error = 0.0<br/>samples = 1<br/>value = 420.23>, fillcolor="#fffffe"] ;
829 -> 839 ;
840 [label=<squared_error = 0.0<br/>samples = 1<br/>value = 421.564>, fillcolor="#fffffe"] ;
828 -> 840 ;
841 [label=<Close &le; 427.678<br/>squared_error = 19.697<br/>samples = 30<br/>value = 428.078>, fillcolor="#fffffe"] ;
781 -> 841 ;
842 [label=<Close &le; 424.749<br/>squared_error = 1.772<br/>samples = 15<br/>value = 424.07>, fillcolor="#fffffe"] ;
841 -> 842 ;
843 [label=<Close &le; 423.383<br/>squared_error = 0.545<br/>samples = 11<br/>value = 423.41>, fillcolor="#fffffe"] ;
842 -> 843 ;
844 [label=<Close &le; 422.559<br/>squared_error = 0.111<br/>samples = 5<br/>value = 422.685>, fillcolor="#fffffe"] ;
843 -> 844 ;
